{
  "schema_version": "psion.a1_minimal_distributed_lm.aggregate_checkpoint.v1",
  "lane_id": "a1_minimal_distributed_lm_001",
  "run_id": "a1_minimal_distributed_lm_001.trusted_aggregation_fixture",
  "aggregate_window_id": "window.a1_minimal_distributed_lm_001.trusted_aggregate.000001",
  "accepted_aggregate_id": "aggregate.a1_minimal_distributed_lm_001.trusted_fixture.000001",
  "tokenizer_digest": "sha256:e32b619b67029aba5de26391f9a5f4a32801220ca690ae2c89d565e61069cf63",
  "tokenized_dataset_digest": "sha256:f0b92dc6301fc72e05a4ead6d85a4b5706e51267c116ecd72025a90c43a37905",
  "validation_set_digest": "sha256:6c1c6ca83a2d8eca6cb133f3ec719e822f134452723e72e5201407b28cd3d228",
  "base_checkpoint_ref": "base://a1_minimal_distributed_lm/step-000000",
  "base_checkpoint_digest": "sha256:5b4be58863fae6ec4a16e83fac0b74d2e57d22d55f3d05d9457e326e43660ad2",
  "aggregated_delta_digest": "sha256:856619da177eb5a276435e3f3ad38882eec016afa680c440dc83d793c2c23700",
  "output_checkpoint_pointer": "pointer://a1_minimal_distributed_lm_001.trusted_aggregation_fixture/promoted/latest",
  "promoted_checkpoint_ref": "checkpoint://a1_minimal_distributed_lm_001.trusted_aggregation_fixture/promoted/step-000004",
  "validation_loss_before": 5.6042047,
  "validation_loss_after": 5.562639,
  "model_state": {
    "root_module_id": "a1_minimal_distributed_lm_trusted_aggregation",
    "root_module_kind": "cs336_a1_transformer_lm",
    "view": "persistent_only",
    "entries": {
      "layers.0.attn.k_proj.weight": {
        "path": "layers.0.attn.k_proj.weight",
        "kind": "parameter",
        "spec": {
          "layout": {
            "shape": {
              "dims": [
                2,
                2
              ]
            },
            "strides": [
              2,
              1
            ],
            "offset": 0
          },
          "dtype": "F32",
          "device": {
            "kind": "Cpu",
            "ordinal": 0,
            "label": "cpu:0"
          }
        },
        "data": {
          "F32": [
            -0.012423999,
            -0.008743999,
            0.027616,
            0.026567997
          ]
        },
        "requires_grad": true,
        "persistent": true
      },
      "layers.0.attn.output_proj.weight": {
        "path": "layers.0.attn.output_proj.weight",
        "kind": "parameter",
        "spec": {
          "layout": {
            "shape": {
              "dims": [
                2,
                2
              ]
            },
            "strides": [
              2,
              1
            ],
            "offset": 0
          },
          "dtype": "F32",
          "device": {
            "kind": "Cpu",
            "ordinal": 0,
            "label": "cpu:0"
          }
        },
        "data": {
          "F32": [
            0.003976002,
            -0.0002399993,
            -0.0051839994,
            -0.014679999
          ]
        },
        "requires_grad": true,
        "persistent": true
      },
      "layers.0.attn.q_proj.weight": {
        "path": "layers.0.attn.q_proj.weight",
        "kind": "parameter",
        "spec": {
          "layout": {
            "shape": {
              "dims": [
                2,
                2
              ]
            },
            "strides": [
              2,
              1
            ],
            "offset": 0
          },
          "dtype": "F32",
          "device": {
            "kind": "Cpu",
            "ordinal": 0,
            "label": "cpu:0"
          }
        },
        "data": {
          "F32": [
            -0.033408,
            -0.027895998,
            -0.022375997,
            -0.033703998
          ]
        },
        "requires_grad": true,
        "persistent": true
      },
      "layers.0.attn.v_proj.weight": {
        "path": "layers.0.attn.v_proj.weight",
        "kind": "parameter",
        "spec": {
          "layout": {
            "shape": {
              "dims": [
                2,
                2
              ]
            },
            "strides": [
              2,
              1
            ],
            "offset": 0
          },
          "dtype": "F32",
          "device": {
            "kind": "Cpu",
            "ordinal": 0,
            "label": "cpu:0"
          }
        },
        "data": {
          "F32": [
            0.011472001,
            0.0036719989,
            -0.014423999,
            0.026983999
          ]
        },
        "requires_grad": true,
        "persistent": true
      },
      "layers.0.ffn.w1.weight": {
        "path": "layers.0.ffn.w1.weight",
        "kind": "parameter",
        "spec": {
          "layout": {
            "shape": {
              "dims": [
                4,
                2
              ]
            },
            "strides": [
              2,
              1
            ],
            "offset": 0
          },
          "dtype": "F32",
          "device": {
            "kind": "Cpu",
            "ordinal": 0,
            "label": "cpu:0"
          }
        },
        "data": {
          "F32": [
            -0.032495998,
            0.0054640006,
            -0.028048,
            -0.009496,
            -0.030992,
            -0.010112,
            -0.028431999,
            -0.005136001
          ]
        },
        "requires_grad": true,
        "persistent": true
      },
      "layers.0.ffn.w2.weight": {
        "path": "layers.0.ffn.w2.weight",
        "kind": "parameter",
        "spec": {
          "layout": {
            "shape": {
              "dims": [
                2,
                4
              ]
            },
            "strides": [
              4,
              1
            ],
            "offset": 0
          },
          "dtype": "F32",
          "device": {
            "kind": "Cpu",
            "ordinal": 0,
            "label": "cpu:0"
          }
        },
        "data": {
          "F32": [
            -0.010255999,
            0.039424,
            0.0098,
            -0.016903998,
            0.0074639986,
            0.004727998,
            -0.018424,
            -0.007520001
          ]
        },
        "requires_grad": true,
        "persistent": true
      },
      "layers.0.ffn.w3.weight": {
        "path": "layers.0.ffn.w3.weight",
        "kind": "parameter",
        "spec": {
          "layout": {
            "shape": {
              "dims": [
                4,
                2
              ]
            },
            "strides": [
              2,
              1
            ],
            "offset": 0
          },
          "dtype": "F32",
          "device": {
            "kind": "Cpu",
            "ordinal": 0,
            "label": "cpu:0"
          }
        },
        "data": {
          "F32": [
            -0.008599998,
            -0.0035039997,
            0.004383998,
            0.0049760006,
            0.007968001,
            0.030672,
            0.036023997,
            -0.004672
          ]
        },
        "requires_grad": true,
        "persistent": true
      },
      "layers.0.ln1.weight": {
        "path": "layers.0.ln1.weight",
        "kind": "parameter",
        "spec": {
          "layout": {
            "shape": {
              "dims": [
                2
              ]
            },
            "strides": [
              1
            ],
            "offset": 0
          },
          "dtype": "F32",
          "device": {
            "kind": "Cpu",
            "ordinal": 0,
            "label": "cpu:0"
          }
        },
        "data": {
          "F32": [
            1.0,
            1.0
          ]
        },
        "requires_grad": true,
        "persistent": true
      },
      "layers.0.ln2.weight": {
        "path": "layers.0.ln2.weight",
        "kind": "parameter",
        "spec": {
          "layout": {
            "shape": {
              "dims": [
                2
              ]
            },
            "strides": [
              1
            ],
            "offset": 0
          },
          "dtype": "F32",
          "device": {
            "kind": "Cpu",
            "ordinal": 0,
            "label": "cpu:0"
          }
        },
        "data": {
          "F32": [
            1.0,
            1.0
          ]
        },
        "requires_grad": true,
        "persistent": true
      },
      "lm_head.weight": {
        "path": "lm_head.weight",
        "kind": "parameter",
        "spec": {
          "layout": {
            "shape": {
              "dims": [
                272,
                2
              ]
            },
            "strides": [
              2,
              1
            ],
            "offset": 0
          },
          "dtype": "F32",
          "device": {
            "kind": "Cpu",
            "ordinal": 0,
            "label": "cpu:0"
          }
        },
        "data": {
          "F32": [
            -0.17610982,
            0.4226946,
            -0.20472175,
            0.3625318,
            -0.21505406,
            0.38005975,
            -0.21869662,
            0.4041093,
            -0.22836515,
            0.36952016,
            -0.23322257,
            0.41560236,
            -0.23558712,
            0.3909162,
            -0.23270161,
            0.4140561,
            -0.2278686,
            0.35640454,
            -0.1757699,
            0.41873664,
            -0.21853106,
            0.4083876,
            -0.19072992,
            0.3786221,
            -0.18567175,
            0.35768473,
            -0.2134397,
            0.40268967,
            -0.19979791,
            0.40592232,
            -0.2039059,
            0.38686308,
            -0.21010278,
            0.35505775,
            -0.18476218,
            0.40757397,
            -0.23354574,
            0.4028086,
            -0.1862257,
            0.3710165,
            -0.17739598,
            0.40766653,
            -0.22794434,
            0.35874632,
            -0.23642527,
            0.37807354,
            -0.22682159,
            0.36090344,
            -0.2384553,
            0.36367387,
            -0.18711522,
            0.3573312,
            -0.1933405,
            0.41366223,
            -0.19601372,
            0.3913471,
            -0.17837806,
            0.35687345,
            -0.1985474,
            0.35019904,
            -0.21676823,
            0.41189802,
            -0.18815394,
            0.41087127,
            -0.20029815,
            0.4189107,
            -0.18709834,
            0.39126098,
            -0.22977525,
            0.41086698,
            -0.17604546,
            0.41946104,
            -0.20704587,
            0.3803109,
            -0.21563032,
            0.36918974,
            -0.2078402,
            0.36470225,
            -0.179497,
            0.3859248,
            -0.23527232,
            0.40814674,
            -0.20545316,
            0.37199503,
            -0.21920495,
            0.3930155,
            -0.17868602,
            0.37962514,
            -0.21270359,
            0.37161964,
            -0.20615804,
            0.39674094,
            -0.18448521,
            0.36523968,
            -0.18491012,
            0.3634405,
            -0.17622721,
            0.40719086,
            -0.1889054,
            0.38136986,
            -0.18494028,
            0.35418198,
            -0.20751669,
            0.42013502,
            -0.2078598,
            0.37041703,
            -0.2238056,
            0.3663867,
            -0.19035067,
            0.40879738,
            -0.22496206,
            0.38672337,
            -0.18966192,
            0.3602042,
            -0.21522239,
            0.41643038,
            -0.23538686,
            0.4047637,
            -0.2071497,
            0.4193003,
            -0.23103377,
            0.37761703,
            -0.23666637,
            0.37695044,
            -0.21773925,
            0.4201776,
            -0.20790963,
            0.3989136,
            -0.21929984,
            0.36450213,
            -0.21204191,
            0.36403218,
            -0.19301125,
            0.39244986,
            -0.19609728,
            0.35985106,
            -0.18258597,
            0.38961405,
            -0.23524885,
            0.3644889,
            -0.21380052,
            0.42037258,
            -0.2025989,
            0.38440028,
            -0.19950218,
            0.35241655,
            -0.2027969,
            0.35477933,
            -0.21046627,
            0.40684846,
            -0.17981562,
            0.40854084,
            -0.18035643,
            0.4050692,
            -0.23943524,
            0.39821798,
            -0.19946323,
            0.35542533,
            -0.21966493,
            0.35855547,
            -0.18978435,
            0.41951874,
            -0.20436977,
            0.35365334,
            -0.1966204,
            0.3767515,
            -0.21815598,
            0.40153748,
            -0.20075193,
            0.38768026,
            -0.21096247,
            0.391494,
            -0.2267591,
            0.36343282,
            -0.22464696,
            0.39142182,
            -0.22155318,
            0.4198423,
            -0.1960071,
            0.37589666,
            -0.21227664,
            0.38680646,
            -0.22410573,
            0.41566738,
            -0.1943207,
            0.4132251,
            -0.1778383,
            0.40698993,
            -0.20065366,
            0.41442284,
            -0.18304424,
            0.39880472,
            -0.17994851,
            0.37540746,
            0.08731447,
            0.15371677,
            -0.21634185,
            0.35117358,
            -0.21743394,
            0.40227744,
            -0.23917526,
            0.28105244,
            -0.22024974,
            0.37857363,
            -0.20724575,
            0.3531142,
            -0.2153496,
            0.36366403,
            -0.18339315,
            0.38687536,
            0.15258501,
            0.048180014,
            -0.19083092,
            0.4002384,
            -0.18557611,
            0.35468742,
            -0.2234651,
            0.39822775,
            -0.23149711,
            0.41339195,
            -0.013942649,
            -0.019736852,
            -0.23208423,
            0.3581349,
            -0.20272887,
            0.3851345,
            -0.20886654,
            0.39313588,
            0.21577772,
            0.012902577,
            -0.23602109,
            0.3730691,
            -0.22852328,
            0.35384667,
            -0.21804923,
            0.41091508,
            -0.1877551,
            0.35309437,
            -0.20934135,
            0.36781308,
            -0.23010519,
            0.41745523,
            -0.19901708,
            0.4074891,
            -0.17956758,
            0.3931119,
            -0.19090247,
            0.39726695,
            -0.21255048,
            0.40138683,
            -0.21001524,
            0.4028278,
            -0.23631817,
            0.40160346,
            -0.22072111,
            0.3579003,
            -0.18750456,
            0.37630534,
            -0.17863238,
            0.39471146,
            -0.22683522,
            0.38798514,
            -0.22700164,
            0.4157594,
            -0.22605433,
            0.36642173,
            -0.21790326,
            0.40200108,
            -0.20934656,
            0.42287385,
            -0.20957492,
            0.3528849,
            -0.20460041,
            0.42183143,
            -0.21897651,
            0.38839933,
            -0.22342952,
            0.3675846,
            -0.1873793,
            0.4218981,
            -0.18428117,
            0.3968642,
            -0.22100791,
            0.41348118,
            -0.18859148,
            0.38645005,
            -0.2178793,
            0.4224247,
            -0.23568796,
            0.36449176,
            -0.18204924,
            0.36793032,
            -0.22898753,
            0.41301316,
            -0.18355206,
            0.39584163,
            -0.21219,
            0.35114786,
            -0.1902789,
            0.3619611,
            -0.17975795,
            0.4199253,
            -0.18708758,
            0.42191836,
            -0.22013438,
            0.4183589,
            -0.19831228,
            0.40311897,
            -0.18193385,
            0.41716155,
            -0.23189741,
            0.36535385,
            -0.23860802,
            0.4112151,
            -0.19538891,
            0.3662901,
            -0.21545443,
            0.41518998,
            -0.20720947,
            0.39506522,
            -0.23149791,
            0.4038056,
            -0.21440239,
            0.4169116,
            -0.22600043,
            0.38967383,
            -0.22499011,
            0.40484518,
            -0.2329039,
            0.38250962,
            -0.2354552,
            0.41405195,
            -0.23299891,
            0.35272127,
            -0.20913026,
            0.41368538,
            -0.18143952,
            0.376558,
            -0.23229964,
            0.40846565,
            -0.18950877,
            0.39233676,
            -0.20913948,
            0.36334628,
            -0.17608348,
            0.36028436,
            -0.18068394,
            0.40622416,
            -0.21948701,
            0.37544882,
            -0.18863325,
            0.3670484,
            -0.2238241,
            0.404111,
            -0.18650983,
            0.3987216,
            -0.19717236,
            0.39995506,
            -0.21108297,
            0.40834445,
            -0.18862627,
            0.36676913,
            -0.21248491,
            0.42181432,
            -0.20781353,
            0.38588113,
            -0.19266589,
            0.38126957,
            -0.20852996,
            0.3619601,
            -0.2129002,
            0.3764449,
            -0.21939062,
            0.4048581,
            -0.19932431,
            0.3840795,
            -0.22462997,
            0.37203652,
            -0.21849261,
            0.41924143,
            -0.22622511,
            0.4199826,
            -0.20804825,
            0.35215992,
            -0.18182215,
            0.37210298,
            -0.18879282,
            0.3800026,
            -0.23846224,
            0.38010427,
            -0.22187713,
            0.3737177,
            -0.21306741,
            0.35618526,
            -0.20693827,
            0.38345134,
            -0.21109605,
            0.42028508,
            -0.22253454,
            0.42159945,
            -0.22048986,
            0.3759696,
            -0.21380363,
            0.35001224,
            -0.23625538,
            0.38193604,
            -0.22344963,
            0.3561222,
            -0.23822524,
            0.3662733,
            -0.17626466,
            0.39408675,
            -0.22856532,
            0.35310182,
            -0.22587335,
            0.3648807,
            -0.19811374,
            0.39783853,
            -0.20239149,
            0.35391188,
            -0.20180006,
            0.4076795,
            -0.18900649,
            0.4221753,
            -0.20973408,
            0.41008127,
            -0.19997701,
            0.40552765,
            -0.21137452,
            0.37522736,
            -0.2043255,
            0.41709867,
            -0.21130523,
            0.375553,
            -0.21801253,
            0.39331686,
            -0.1917042,
            0.39428437,
            -0.22211073,
            0.40489554,
            -0.18965244,
            0.3930114,
            -0.1768139,
            0.41453323,
            -0.21084444,
            0.400149,
            -0.21571335,
            0.3768584,
            -0.22042795,
            0.4015886,
            -0.17612411,
            0.4119355,
            -0.21136068,
            0.35606542,
            -0.20038104,
            0.36162424,
            -0.20334598,
            0.35994795,
            -0.20570897,
            0.40668893,
            -0.18094438,
            0.37188178,
            -0.19518037,
            0.42247444,
            -0.19841926,
            0.36010844,
            -0.18834665,
            0.41325548,
            -0.20988585,
            0.37408826,
            -0.18740153,
            0.3766107,
            -0.18345524,
            0.41705826,
            -0.2264627,
            0.39862528,
            -0.21806581,
            0.36052772,
            -0.19624442,
            0.3997106,
            -0.22492184,
            0.42177233,
            -0.23247099,
            0.3615119,
            -0.18147859,
            0.4066501,
            -0.18358673,
            0.3551809,
            -0.17628458,
            0.38601533,
            -0.19695331,
            0.3820553,
            -0.21928959,
            0.37273002,
            -0.22926074,
            0.4176034,
            -0.21980844,
            0.36994955,
            -0.22656824,
            0.36512238,
            -0.18452792,
            0.38620427,
            -0.22919126,
            0.417563,
            -0.22743644,
            0.39067635,
            -0.2371846,
            0.40369797,
            -0.18842956,
            0.3616173,
            -0.17877854,
            0.3964185,
            -0.21033004,
            0.36776376,
            -0.18083689,
            0.37376845,
            -0.23674555,
            0.4150096,
            -0.22023295,
            0.4043463,
            -0.23844256,
            0.3345045,
            -0.20565711,
            0.3977301,
            0.010279527,
            0.11530806,
            -0.2219533,
            0.3546186,
            -0.22254966,
            0.35529968,
            -0.18662724,
            0.3746011,
            -0.18241295,
            0.41595194,
            -0.19998966,
            0.388599,
            -0.19311987,
            0.35912678,
            -0.2363028,
            0.35607174,
            -0.20441075,
            0.42287293,
            -0.38927963,
            0.01408973
          ]
        },
        "requires_grad": true,
        "persistent": true
      },
      "ln_final.weight": {
        "path": "ln_final.weight",
        "kind": "parameter",
        "spec": {
          "layout": {
            "shape": {
              "dims": [
                2
              ]
            },
            "strides": [
              1
            ],
            "offset": 0
          },
          "dtype": "F32",
          "device": {
            "kind": "Cpu",
            "ordinal": 0,
            "label": "cpu:0"
          }
        },
        "data": {
          "F32": [
            1.0,
            1.0
          ]
        },
        "requires_grad": true,
        "persistent": true
      },
      "token_embeddings.weight": {
        "path": "token_embeddings.weight",
        "kind": "parameter",
        "spec": {
          "layout": {
            "shape": {
              "dims": [
                272,
                2
              ]
            },
            "strides": [
              2,
              1
            ],
            "offset": 0
          },
          "dtype": "F32",
          "device": {
            "kind": "Cpu",
            "ordinal": 0,
            "label": "cpu:0"
          }
        },
        "data": {
          "F32": [
            0.015488,
            0.034056,
            -0.0148,
            -0.02056,
            0.035544,
            0.014664001,
            -0.002392001,
            -0.015543999,
            0.016448002,
            0.0077680014,
            0.016928,
            0.013424001,
            -0.008424001,
            0.017872,
            -0.037616,
            0.024008002,
            -0.011024,
            -0.013568001,
            0.023400001,
            -0.037104,
            0.027439998,
            -0.032263998,
            -0.028703999,
            -0.0034159992,
            -0.030592,
            0.008095998,
            -0.004087999,
            -0.035408,
            0.020079998,
            -0.014384,
            0.027712,
            -0.008512001,
            -0.034904,
            -0.03608,
            -0.0142319985,
            -0.03972,
            0.035071995,
            0.0022079991,
            0.035096,
            -0.033632,
            -0.0028480005,
            0.015503998,
            -0.032784,
            -0.008776,
            0.027536001,
            0.037871998,
            -0.008176,
            -0.012223999,
            0.030143999,
            0.023128,
            -0.030935999,
            0.034928,
            -0.0018000007,
            0.026936002,
            0.017055998,
            0.030488,
            -0.022031998,
            0.00093599793,
            -0.031608,
            -0.015975999,
            -0.035016,
            -0.005311999,
            -0.011935999,
            -0.013808,
            -0.039015997,
            0.025144,
            0.019879999,
            0.007055998,
            0.0025439977,
            -0.029536,
            0.0013360024,
            0.012255997,
            0.018456,
            -0.006056001,
            0.034752,
            0.03692,
            0.0017840003,
            -0.020232,
            -0.026687998,
            -0.006775999,
            0.007607999,
            -0.032648,
            0.03732,
            -0.02572,
            -0.034879997,
            -0.026143998,
            0.0038560007,
            -0.031535998,
            0.0041359994,
            -0.0026320005,
            -0.033784,
            0.0392,
            -0.01924,
            0.023920001,
            -0.014544,
            -0.020296002,
            0.0086240005,
            0.021384,
            -0.007191999,
            0.038639996,
            0.023904,
            -0.012967999,
            0.033735998,
            0.034615997,
            -0.034232,
            0.006919999,
            0.033784,
            -0.03156,
            0.038688,
            0.009911999,
            -0.019768,
            0.014223999,
            -0.039152,
            -0.006256001,
            0.022504,
            -0.0082640005,
            0.024344001,
            0.025760002,
            0.0049119997,
            0.013544002,
            0.022807999,
            0.0071600005,
            0.020752,
            0.013903999,
            0.024735998,
            0.014720001,
            0.018288001,
            0.009000001,
            -0.010352001,
            0.028415998,
            0.011608,
            -0.034264,
            0.016336001,
            -0.039688,
            -0.025047997,
            -0.017135998,
            0.009320001,
            0.021575999,
            -0.012,
            0.025799999,
            -0.00031199932,
            0.039424,
            0.018671999,
            0.012216,
            -0.036904,
            -0.03636,
            -0.025023999,
            -0.036536,
            0.028463997,
            -0.015232,
            0.0114480015,
            -0.017407998,
            -0.021952,
            -0.017096,
            0.002775998,
            -0.036904,
            0.00388,
            -0.009303999,
            0.023864001,
            -0.0136319995,
            -0.0244,
            0.036399998,
            0.0025839997,
            0.020735998,
            -0.007904,
            0.030111998,
            0.0041279984,
            -0.001544001,
            -0.014447998,
            0.0026879977,
            -0.0029279995,
            -0.028927999,
            -0.00013600111,
            0.00064000126,
            0.016064,
            0.028639998,
            -0.039568,
            0.0002880001,
            0.0048559997,
            0.035359997,
            0.0021439982,
            -0.036408,
            -0.009024,
            -0.022175997,
            0.016751999,
            0.035784002,
            -0.025568,
            0.025632,
            -0.012248001,
            -0.039352,
            -0.008415999,
            0.010199999,
            0.028959999,
            -0.016288,
            -0.000624001,
            0.023192,
            -0.004895999,
            -0.0033839988,
            -0.0037919998,
            -0.002551999,
            -0.036287997,
            -0.038984,
            -0.019736,
            -0.029496,
            0.014535999,
            -0.039928,
            0.035447996,
            0.033616,
            -0.017,
            0.018063998,
            0.021079998,
            -0.020623999,
            0.012792001,
            0.036512,
            -0.009391999,
            -0.038912,
            0.018800002,
            0.025503997,
            -0.025959998,
            -0.014296,
            0.035152,
            -0.001400001,
            0.0034880016,
            -0.038487997,
            0.028063998,
            -0.031776,
            -0.033456,
            -0.027280001,
            0.012672,
            -0.001408,
            -0.0018160009,
            -0.001559999,
            -0.026008,
            -0.010151999,
            0.019559998,
            0.0081279995,
            0.0149599975,
            0.020111999,
            -0.036032,
            -0.014079999,
            -0.017024,
            0.027439998,
            0.038416,
            -0.02488,
            0.017024001,
            -0.029888,
            0.027951999,
            0.023847999,
            -0.021616,
            -0.033464,
            -0.029959999,
            0.033503998,
            0.007639999,
            -0.012320001,
            0.037088,
            0.029671997,
            -0.008087999,
            -0.028095998,
            0.030447997,
            0.005616002,
            0.0014879989,
            0.026904,
            -0.008280001,
            -0.023832,
            -0.03788,
            0.038135998,
            0.026999997,
            0.0074560023,
            -0.026056,
            0.009879999,
            -0.0051679993,
            -0.0116880005,
            -0.037143998,
            0.037887998,
            0.036663998,
            0.003720002,
            0.0073439977,
            0.028751997,
            -0.012016,
            0.018392,
            0.017536001,
            0.036336,
            -0.021992002,
            0.013888001,
            -0.011407999,
            0.021455998,
            0.009271998,
            0.0105679985,
            0.025447998,
            0.037352,
            -0.024279999,
            -0.019464,
            0.02296,
            0.035143998,
            -0.036552,
            0.018207997,
            0.005023999,
            0.019623999,
            0.015176,
            -0.003808,
            -0.03044,
            -0.015248001,
            0.039559998,
            0.03912,
            -0.023151997,
            0.035247996,
            0.009768,
            -0.019319998,
            0.017304001,
            0.018903999,
            -0.033912,
            0.03304,
            0.020535998,
            0.0012879991,
            -0.024512,
            -0.015536,
            -0.018872,
            -0.018352,
            0.008512001,
            0.030967997,
            0.0011199999,
            0.014032002,
            -0.010871999,
            0.034368,
            0.019623999,
            -0.03644,
            -0.0011680006,
            -0.00011199951,
            -0.035079997,
            -0.034736,
            -0.020432,
            -0.037528,
            0.015711999,
            -0.022431998,
            0.012856002,
            0.030328002,
            -0.015304,
            0.02472,
            0.019488001,
            0.022800002,
            0.014832,
            -0.039375998,
            -0.027863998,
            0.0049760006,
            -0.007056,
            -0.024112,
            0.031472,
            0.008607998,
            -0.009344,
            -0.016456,
            -0.0027040003,
            0.030479997,
            0.035032,
            -0.02204,
            0.0388,
            -0.0132559985,
            0.022695998,
            -0.031728,
            -0.02832,
            0.0158,
            -0.030647999,
            0.030224,
            0.039576,
            -0.017568,
            0.025823997,
            0.027248,
            -0.030327998,
            0.014015999,
            -0.019128,
            0.037104,
            -0.036184,
            -0.02472,
            0.033816,
            0.027919998,
            0.002800002,
            0.022087999,
            0.002168002,
            0.026911996,
            0.00084799767,
            -0.026392,
            -0.018951999,
            0.00776,
            -0.033487998,
            -0.017368,
            -0.036087997,
            -0.016688,
            0.024344001,
            -0.036112,
            0.0018319988,
            0.009664001,
            -0.0099760005,
            -0.0015919995,
            -0.027936,
            -0.006775999,
            0.014640002,
            -0.003096001,
            -0.028327998,
            0.009911999,
            0.014215998,
            -0.016991999,
            -0.011031999,
            -0.0062960004,
            0.030655999,
            -0.025840001,
            -0.005887999,
            -0.02036,
            0.023312,
            0.008847999,
            0.0022559976,
            -0.030744,
            -0.0036080002,
            -0.034592,
            -0.002335999,
            -0.032592,
            -0.0067519997,
            -0.035944,
            -0.03216,
            -0.009447998,
            0.03032,
            0.016999997,
            -0.007952001,
            0.034064002,
            0.017904,
            -0.037104,
            0.014903998,
            -0.01592,
            0.031287998,
            -0.004895999,
            -0.012079999,
            0.0027199984,
            0.015215998,
            0.013319997,
            0.033016,
            0.012016,
            -0.018512001,
            0.011511998,
            -0.012104001,
            -0.014328,
            0.011392002,
            -0.002808001,
            0.0030560016,
            0.015464,
            0.039088,
            -0.013399999,
            -0.028479999,
            -0.024168,
            0.0022319984,
            0.035240002,
            -0.005583999,
            0.013239998,
            0.0030959987,
            0.035864,
            0.006079998,
            -0.033536,
            -0.01404,
            0.022728,
            -0.0010960007,
            0.0046,
            0.014503999,
            0.004535999,
            0.0009520006,
            -0.019568,
            -0.031064,
            0.031023998,
            -0.018311998,
            0.031496,
            0.027519997,
            0.014423999,
            -0.038599998,
            -0.016824,
            -0.033871997,
            -0.009776001,
            0.031079998,
            0.013495998,
            0.0074560023,
            0.018392,
            0.00029600144,
            0.009784002,
            -0.036536,
            0.008792,
            0.037600003,
            -0.0071679996,
            -0.013592,
            -0.0115519995,
            0.030408,
            -0.0103360005,
            0.029823998,
            0.025760002,
            -0.036879998,
            -0.030008001,
            0.026360001,
            -0.01948,
            -0.021416001,
            -0.031928,
            0.024847997,
            -0.0055679986,
            0.012343998,
            -0.035464,
            -0.022832,
            0.005303998,
            -0.023688002,
            -0.015991999,
            0.015296001,
            0.0051280023,
            -0.017064,
            0.033703998,
            -0.039056,
            -0.026447998,
            -0.007967999,
            -0.0043679997,
            0.019271998,
            -0.011407999,
            0.022160001,
            0.0019439983,
            0.014456,
            0.02644,
            0.0055679986,
            -0.0142560005,
            0.020776,
            -0.019407999,
            -0.033768,
            0.03876,
            -0.019768,
            -0.018671999,
            -0.033919998,
            -0.003512001,
            -0.00016000032,
            -0.0000880003,
            0.035152,
            -0.027655998,
            -0.0028640006,
            0.034032002,
            0.017248001,
            0.00024799822,
            0.0075439974,
            0.020831998,
            -0.018815998,
            -0.013527999,
            -0.016672,
            0.019008001,
            0.019208001,
            -0.001703999,
            0.012575998,
            -0.02588
          ]
        },
        "requires_grad": true,
        "persistent": true
      }
    },
    "state_dict_digest": "8285cfce25ac966b1b7d235769af8242bd87392f37c4d16ad22b3a36bbfc8500"
  },
  "checkpoint_digest": "sha256:234460c819f2d4cf56918e774a2e23f2a65562bb925e359e2735ad0980070e8d"
}
