{
  "schema_version": "psion.a1_minimal_distributed_lm.local_update_checkpoint.v1",
  "lane_id": "a1_minimal_distributed_lm_001",
  "run_id": "a1_minimal_distributed_lm_001.local_update_fixture",
  "assignment_id": "a1_minimal_distributed_lm_001.local_update.assignment.fixture",
  "worker_id": "psionic.local_update.fixture.worker",
  "tokenizer_digest": "sha256:e32b619b67029aba5de26391f9a5f4a32801220ca690ae2c89d565e61069cf63",
  "tokenized_dataset_digest": "sha256:f0b92dc6301fc72e05a4ead6d85a4b5706e51267c116ecd72025a90c43a37905",
  "validation_set_digest": "sha256:6c1c6ca83a2d8eca6cb133f3ec719e822f134452723e72e5201407b28cd3d228",
  "base_checkpoint_ref": "base://a1_minimal_distributed_lm/step-000000",
  "optimizer_step": 4,
  "deterministic_cursor": 4,
  "consumed_token_count": 8,
  "model_state": {
    "root_module_id": "a1_minimal_distributed_lm_local_update",
    "root_module_kind": "cs336_a1_transformer_lm",
    "view": "persistent_only",
    "entries": {
      "layers.0.attn.k_proj.weight": {
        "path": "layers.0.attn.k_proj.weight",
        "kind": "parameter",
        "spec": {
          "layout": {
            "shape": {
              "dims": [
                2,
                2
              ]
            },
            "strides": [
              2,
              1
            ],
            "offset": 0
          },
          "dtype": "F32",
          "device": {
            "kind": "Cpu",
            "ordinal": 0,
            "label": "cpu:0"
          }
        },
        "data": {
          "F32": [
            -0.012423999,
            -0.008743999,
            0.027616,
            0.026567997
          ]
        },
        "requires_grad": true,
        "persistent": true
      },
      "layers.0.attn.output_proj.weight": {
        "path": "layers.0.attn.output_proj.weight",
        "kind": "parameter",
        "spec": {
          "layout": {
            "shape": {
              "dims": [
                2,
                2
              ]
            },
            "strides": [
              2,
              1
            ],
            "offset": 0
          },
          "dtype": "F32",
          "device": {
            "kind": "Cpu",
            "ordinal": 0,
            "label": "cpu:0"
          }
        },
        "data": {
          "F32": [
            0.003976002,
            -0.0002399993,
            -0.0051839994,
            -0.014679999
          ]
        },
        "requires_grad": true,
        "persistent": true
      },
      "layers.0.attn.q_proj.weight": {
        "path": "layers.0.attn.q_proj.weight",
        "kind": "parameter",
        "spec": {
          "layout": {
            "shape": {
              "dims": [
                2,
                2
              ]
            },
            "strides": [
              2,
              1
            ],
            "offset": 0
          },
          "dtype": "F32",
          "device": {
            "kind": "Cpu",
            "ordinal": 0,
            "label": "cpu:0"
          }
        },
        "data": {
          "F32": [
            -0.033408,
            -0.027895998,
            -0.022375997,
            -0.033703998
          ]
        },
        "requires_grad": true,
        "persistent": true
      },
      "layers.0.attn.v_proj.weight": {
        "path": "layers.0.attn.v_proj.weight",
        "kind": "parameter",
        "spec": {
          "layout": {
            "shape": {
              "dims": [
                2,
                2
              ]
            },
            "strides": [
              2,
              1
            ],
            "offset": 0
          },
          "dtype": "F32",
          "device": {
            "kind": "Cpu",
            "ordinal": 0,
            "label": "cpu:0"
          }
        },
        "data": {
          "F32": [
            0.011472001,
            0.0036719989,
            -0.014423999,
            0.026983999
          ]
        },
        "requires_grad": true,
        "persistent": true
      },
      "layers.0.ffn.w1.weight": {
        "path": "layers.0.ffn.w1.weight",
        "kind": "parameter",
        "spec": {
          "layout": {
            "shape": {
              "dims": [
                4,
                2
              ]
            },
            "strides": [
              2,
              1
            ],
            "offset": 0
          },
          "dtype": "F32",
          "device": {
            "kind": "Cpu",
            "ordinal": 0,
            "label": "cpu:0"
          }
        },
        "data": {
          "F32": [
            -0.032495998,
            0.0054640006,
            -0.028048,
            -0.009496,
            -0.030992,
            -0.010112,
            -0.028431999,
            -0.005136001
          ]
        },
        "requires_grad": true,
        "persistent": true
      },
      "layers.0.ffn.w2.weight": {
        "path": "layers.0.ffn.w2.weight",
        "kind": "parameter",
        "spec": {
          "layout": {
            "shape": {
              "dims": [
                2,
                4
              ]
            },
            "strides": [
              4,
              1
            ],
            "offset": 0
          },
          "dtype": "F32",
          "device": {
            "kind": "Cpu",
            "ordinal": 0,
            "label": "cpu:0"
          }
        },
        "data": {
          "F32": [
            -0.010255999,
            0.039424,
            0.0098,
            -0.016903998,
            0.0074639986,
            0.004727998,
            -0.018424,
            -0.007520001
          ]
        },
        "requires_grad": true,
        "persistent": true
      },
      "layers.0.ffn.w3.weight": {
        "path": "layers.0.ffn.w3.weight",
        "kind": "parameter",
        "spec": {
          "layout": {
            "shape": {
              "dims": [
                4,
                2
              ]
            },
            "strides": [
              2,
              1
            ],
            "offset": 0
          },
          "dtype": "F32",
          "device": {
            "kind": "Cpu",
            "ordinal": 0,
            "label": "cpu:0"
          }
        },
        "data": {
          "F32": [
            -0.008599998,
            -0.0035039997,
            0.004383998,
            0.0049760006,
            0.007968001,
            0.030672,
            0.036023997,
            -0.004672
          ]
        },
        "requires_grad": true,
        "persistent": true
      },
      "layers.0.ln1.weight": {
        "path": "layers.0.ln1.weight",
        "kind": "parameter",
        "spec": {
          "layout": {
            "shape": {
              "dims": [
                2
              ]
            },
            "strides": [
              1
            ],
            "offset": 0
          },
          "dtype": "F32",
          "device": {
            "kind": "Cpu",
            "ordinal": 0,
            "label": "cpu:0"
          }
        },
        "data": {
          "F32": [
            1.0,
            1.0
          ]
        },
        "requires_grad": true,
        "persistent": true
      },
      "layers.0.ln2.weight": {
        "path": "layers.0.ln2.weight",
        "kind": "parameter",
        "spec": {
          "layout": {
            "shape": {
              "dims": [
                2
              ]
            },
            "strides": [
              1
            ],
            "offset": 0
          },
          "dtype": "F32",
          "device": {
            "kind": "Cpu",
            "ordinal": 0,
            "label": "cpu:0"
          }
        },
        "data": {
          "F32": [
            1.0,
            1.0
          ]
        },
        "requires_grad": true,
        "persistent": true
      },
      "lm_head.weight": {
        "path": "lm_head.weight",
        "kind": "parameter",
        "spec": {
          "layout": {
            "shape": {
              "dims": [
                272,
                2
              ]
            },
            "strides": [
              2,
              1
            ],
            "offset": 0
          },
          "dtype": "F32",
          "device": {
            "kind": "Cpu",
            "ordinal": 0,
            "label": "cpu:0"
          }
        },
        "data": {
          "F32": [
            -0.3936014,
            0.3747498,
            -0.42866918,
            0.31969622,
            -0.44112113,
            0.33528572,
            -0.44535047,
            0.35682866,
            -0.4575677,
            0.3254151,
            -0.46310842,
            0.366708,
            -0.46628618,
            0.34451276,
            -0.46248123,
            0.36534035,
            -0.45707175,
            0.3135509,
            -0.39323318,
            0.37121084,
            -0.4451043,
            0.3606704,
            -0.41157517,
            0.3346442,
            -0.40565395,
            0.3157867,
            -0.4389306,
            0.35570335,
            -0.42229238,
            0.35899708,
            -0.4274611,
            0.3417271,
            -0.43528977,
            0.31277323,
            -0.4041225,
            0.36091894,
            -0.46364152,
            0.35524493,
            -0.40621114,
            0.32787845,
            -0.395284,
            0.36121878,
            -0.4571448,
            0.31567243,
            -0.46744823,
            0.33292863,
            -0.45574218,
            0.3176556,
            -0.4700971,
            0.31987163,
            -0.40739518,
            0.31542772,
            -0.41440138,
            0.36613315,
            -0.4178465,
            0.34598956,
            -0.396898,
            0.3152382,
            -0.4212709,
            0.30864558,
            -0.44290918,
            0.36386684,
            -0.40817246,
            0.36378145,
            -0.42276976,
            0.3706309,
            -0.4070847,
            0.34616238,
            -0.45890272,
            0.36257038,
            -0.39355582,
            0.37185237,
            -0.4313422,
            0.33572793,
            -0.44192478,
            0.32544592,
            -0.43244827,
            0.32158375,
            -0.39799818,
            0.34155756,
            -0.46572137,
            0.3599794,
            -0.4294774,
            0.3282521,
            -0.4460832,
            0.34684741,
            -0.39708036,
            0.33588213,
            -0.43832335,
            0.32772118,
            -0.43010774,
            0.35056233,
            -0.40416473,
            0.32268366,
            -0.40469068,
            0.32103845,
            -0.39388952,
            0.36082542,
            -0.40935034,
            0.33717915,
            -0.4048015,
            0.3126181,
            -0.4315288,
            0.3715124,
            -0.4324224,
            0.3267602,
            -0.45198107,
            0.3226978,
            -0.4108401,
            0.36185437,
            -0.45321548,
            0.3410271,
            -0.41044226,
            0.3179736,
            -0.44097087,
            0.36797023,
            -0.4658983,
            0.35694596,
            -0.4310906,
            0.37077633,
            -0.4607856,
            0.3326579,
            -0.46775746,
            0.33190963,
            -0.4440122,
            0.37124854,
            -0.43221977,
            0.35246706,
            -0.44646314,
            0.32110694,
            -0.43758148,
            0.32086772,
            -0.41420576,
            0.34706795,
            -0.41822335,
            0.31748566,
            -0.40167278,
            0.3448033,
            -0.46611732,
            0.32068956,
            -0.43919155,
            0.37153897,
            -0.4258953,
            0.33954093,
            -0.4224112,
            0.31063968,
            -0.42639312,
            0.31270507,
            -0.43525866,
            0.35952118,
            -0.3981747,
            0.36193356,
            -0.39885575,
            0.35879558,
            -0.4709804,
            0.35096526,
            -0.42233944,
            0.31337717,
            -0.4469628,
            0.3157073,
            -0.41005224,
            0.3714898,
            -0.4283151,
            0.31164148,
            -0.41871253,
            0.33279225,
            -0.4447136,
            0.3545355,
            -0.42362255,
            0.34255117,
            -0.43601376,
            0.34570572,
            -0.4556429,
            0.31994832,
            -0.45278242,
            0.34526446,
            -0.44869202,
            0.3708368,
            -0.4179775,
            0.33203536,
            -0.43766272,
            0.34144652,
            -0.4518715,
            0.36702898,
            -0.41559005,
            0.36571214,
            -0.39581996,
            0.36059725,
            -0.4232462,
            0.3665995,
            -0.40214,
            0.3530782,
            -0.39863017,
            0.33202788,
            0.13397542,
            -0.1033878,
            -0.44295102,
            0.30908734,
            -0.4438216,
            0.35522017,
            -0.42905253,
            0.35630336,
            -0.44750175,
            0.33380565,
            -0.43182147,
            0.3110788,
            -0.44162974,
            0.32044896,
            -0.40266687,
            0.34230748,
            0.29208604,
            -0.33587003,
            -0.4115009,
            0.35414517,
            -0.40556276,
            0.31306186,
            -0.45126224,
            0.3514147,
            -0.46100086,
            0.3647807,
            -0.4429515,
            0.36135325,
            -0.46225992,
            0.315015,
            -0.4260465,
            0.34019995,
            -0.43344146,
            0.34724215,
            0.41908798,
            -0.41604155,
            -0.46699473,
            0.32842416,
            -0.45790103,
            0.31121388,
            -0.44448808,
            0.36294928,
            -0.4082001,
            0.31155562,
            -0.4342517,
            0.32436353,
            -0.45924017,
            0.36845413,
            -0.42133048,
            0.36042675,
            -0.39801916,
            0.3480456,
            -0.411615,
            0.35146803,
            -0.43785703,
            0.3545585,
            -0.43474832,
            0.35592467,
            -0.46708345,
            0.35408744,
            -0.44826493,
            0.31508636,
            -0.4077062,
            0.3326354,
            -0.39688376,
            0.34951523,
            -0.45550925,
            0.3421125,
            -0.4554334,
            0.36702758,
            -0.45474818,
            0.3226719,
            -0.4443993,
            0.35495886,
            -0.43372962,
            0.37390783,
            -0.43466362,
            0.31081182,
            -0.42796335,
            0.373117,
            -0.44584745,
            0.34269878,
            -0.45150787,
            0.32379147,
            -0.40713152,
            0.37369394,
            -0.4036442,
            0.3512944,
            -0.44808948,
            0.3651621,
            -0.40892684,
            0.3417783,
            -0.44415998,
            0.37325308,
            -0.4666609,
            0.32068107,
            -0.40121445,
            0.32519093,
            -0.45790896,
            0.36451367,
            -0.40277722,
            0.35039365,
            -0.43787137,
            0.30916718,
            -0.41117236,
            0.31955373,
            -0.3979965,
            0.3721563,
            -0.40678018,
            0.37372088,
            -0.44696686,
            0.369552,
            -0.42051885,
            0.35652104,
            -0.4006331,
            0.36961204,
            -0.461965,
            0.3215568,
            -0.4698197,
            0.3626313,
            -0.41731197,
            0.32334894,
            -0.44126755,
            0.3668531,
            -0.43140393,
            0.349025,
            -0.4611015,
            0.35619593,
            -0.43996322,
            0.36842486,
            -0.45446497,
            0.34365493,
            -0.45307088,
            0.3573108,
            -0.4630494,
            0.3370193,
            -0.46588543,
            0.36525795,
            -0.46343747,
            0.3100826,
            -0.43356064,
            0.36569002,
            -0.40040982,
            0.33302945,
            -0.4620434,
            0.36034876,
            -0.4099794,
            0.3470647,
            -0.43404415,
            0.32032079,
            -0.3941218,
            0.31840208,
            -0.3992378,
            0.3598249,
            -0.44659463,
            0.3310042,
            -0.40914506,
            0.32421538,
            -0.45164448,
            0.35668528,
            -0.40630785,
            0.35290372,
            -0.41916844,
            0.35370862,
            -0.43599612,
            0.3608455,
            -0.40913898,
            0.3239622,
            -0.43756938,
            0.37286717,
            -0.43222624,
            0.3407342,
            -0.41388953,
            0.33698532,
            -0.4333127,
            0.31907934,
            -0.43852025,
            0.33207858,
            -0.44619375,
            0.35748082,
            -0.42192364,
            0.33934113,
            -0.45294422,
            0.32778627,
            -0.44494495,
            0.3703893,
            -0.45443264,
            0.37082562,
            -0.4328075,
            0.31019095,
            -0.40090692,
            0.32898206,
            -0.40922657,
            0.33594584,
            -0.46995288,
            0.33470583,
            -0.44954452,
            0.32937735,
            -0.43890187,
            0.31372255,
            -0.43118244,
            0.33856604,
            -0.43589008,
            0.37154064,
            -0.44987825,
            0.3723785,
            -0.44782045,
            0.3314481,
            -0.43985364,
            0.3080944,
            -0.46720096,
            0.33641404,
            -0.45163307,
            0.31340474,
            -0.46978828,
            0.3222284,
            -0.39405376,
            0.34901935,
            -0.45795926,
            0.3105368,
            -0.4545391,
            0.32128176,
            -0.42032874,
            0.3517774,
            -0.4259075,
            0.31192666,
            -0.42470425,
            0.360517,
            -0.40908834,
            0.37389302,
            -0.43433324,
            0.36244202,
            -0.4225134,
            0.35863742,
            -0.43666738,
            0.33101878,
            -0.42767763,
            0.36888874,
            -0.43657982,
            0.33131498,
            -0.4446185,
            0.34715143,
            -0.4126103,
            0.34875834,
            -0.44953135,
            0.35743734,
            -0.41014647,
            0.3476689,
            -0.39452243,
            0.36740664,
            -0.43578628,
            0.35349455,
            -0.44195735,
            0.3323774,
            -0.44749892,
            0.35451746,
            -0.3937217,
            0.36509392,
            -0.43681726,
            0.3136568,
            -0.4234018,
            0.31898496,
            -0.42701766,
            0.31738666,
            -0.42946446,
            0.35951486,
            -0.39985487,
            0.3288052,
            -0.41653675,
            0.37397474,
            -0.42103463,
            0.31765944,
            -0.40838146,
            0.365916,
            -0.4348605,
            0.33002838,
            -0.40757945,
            0.33291465,
            -0.40246075,
            0.36947376,
            -0.45494592,
            0.35168844,
            -0.44498438,
            0.3175365,
            -0.41804743,
            0.35351518,
            -0.45281023,
            0.37246284,
            -0.46270812,
            0.31806478,
            -0.4001872,
            0.36018467,
            -0.40316537,
            0.31356236,
            -0.39414868,
            0.34172943,
            -0.4190686,
            0.33757797,
            -0.4463772,
            0.3285525,
            -0.45819724,
            0.368611,
            -0.4470388,
            0.3260247,
            -0.45539275,
            0.3214828,
            -0.40403697,
            0.34166953,
            -0.458112,
            0.3685769,
            -0.4562237,
            0.34451786,
            -0.46813476,
            0.35594085,
            -0.40894443,
            0.31928974,
            -0.39704353,
            0.35105038,
            -0.4354585,
            0.32429305,
            -0.39971003,
            0.33051842,
            -0.4674722,
            0.36607724,
            -0.44723204,
            0.35699776,
            -0.44521204,
            0.32711637,
            -0.4283976,
            0.38307288,
            -0.40494522,
            0.31564948,
            -0.44980648,
            0.31207737,
            -0.4505336,
            0.31268078,
            -0.40666413,
            0.33111593,
            -0.4012199,
            0.36851245,
            -0.42268923,
            0.3434009,
            -0.4146271,
            0.31690466,
            -0.46749708,
            0.31304052,
            -0.42772204,
            0.37405437,
            -0.43748155,
            0.33071816
          ]
        },
        "requires_grad": true,
        "persistent": true
      },
      "ln_final.weight": {
        "path": "ln_final.weight",
        "kind": "parameter",
        "spec": {
          "layout": {
            "shape": {
              "dims": [
                2
              ]
            },
            "strides": [
              1
            ],
            "offset": 0
          },
          "dtype": "F32",
          "device": {
            "kind": "Cpu",
            "ordinal": 0,
            "label": "cpu:0"
          }
        },
        "data": {
          "F32": [
            1.0,
            1.0
          ]
        },
        "requires_grad": true,
        "persistent": true
      },
      "token_embeddings.weight": {
        "path": "token_embeddings.weight",
        "kind": "parameter",
        "spec": {
          "layout": {
            "shape": {
              "dims": [
                272,
                2
              ]
            },
            "strides": [
              2,
              1
            ],
            "offset": 0
          },
          "dtype": "F32",
          "device": {
            "kind": "Cpu",
            "ordinal": 0,
            "label": "cpu:0"
          }
        },
        "data": {
          "F32": [
            0.015488,
            0.034056,
            -0.0148,
            -0.02056,
            0.035544,
            0.014664001,
            -0.002392001,
            -0.015543999,
            0.016448002,
            0.0077680014,
            0.016928,
            0.013424001,
            -0.008424001,
            0.017872,
            -0.037616,
            0.024008002,
            -0.011024,
            -0.013568001,
            0.023400001,
            -0.037104,
            0.027439998,
            -0.032263998,
            -0.028703999,
            -0.0034159992,
            -0.030592,
            0.008095998,
            -0.004087999,
            -0.035408,
            0.020079998,
            -0.014384,
            0.027712,
            -0.008512001,
            -0.034904,
            -0.03608,
            -0.0142319985,
            -0.03972,
            0.035071995,
            0.0022079991,
            0.035096,
            -0.033632,
            -0.0028480005,
            0.015503998,
            -0.032784,
            -0.008776,
            0.027536001,
            0.037871998,
            -0.008176,
            -0.012223999,
            0.030143999,
            0.023128,
            -0.030935999,
            0.034928,
            -0.0018000007,
            0.026936002,
            0.017055998,
            0.030488,
            -0.022031998,
            0.00093599793,
            -0.031608,
            -0.015975999,
            -0.035016,
            -0.005311999,
            -0.011935999,
            -0.013808,
            -0.039015997,
            0.025144,
            0.019879999,
            0.007055998,
            0.0025439977,
            -0.029536,
            0.0013360024,
            0.012255997,
            0.018456,
            -0.006056001,
            0.034752,
            0.03692,
            0.0017840003,
            -0.020232,
            -0.026687998,
            -0.006775999,
            0.007607999,
            -0.032648,
            0.03732,
            -0.02572,
            -0.034879997,
            -0.026143998,
            0.0038560007,
            -0.031535998,
            0.0041359994,
            -0.0026320005,
            -0.033784,
            0.0392,
            -0.01924,
            0.023920001,
            -0.014544,
            -0.020296002,
            0.0086240005,
            0.021384,
            -0.007191999,
            0.038639996,
            0.023904,
            -0.012967999,
            0.033735998,
            0.034615997,
            -0.034232,
            0.006919999,
            0.033784,
            -0.03156,
            0.038688,
            0.009911999,
            -0.019768,
            0.014223999,
            -0.039152,
            -0.006256001,
            0.022504,
            -0.0082640005,
            0.024344001,
            0.025760002,
            0.0049119997,
            0.013544002,
            0.022807999,
            0.0071600005,
            0.020752,
            0.013903999,
            0.024735998,
            0.014720001,
            0.018288001,
            0.009000001,
            -0.010352001,
            0.028415998,
            0.011608,
            -0.034264,
            0.016336001,
            -0.039688,
            -0.025047997,
            -0.017135998,
            0.009320001,
            0.021575999,
            -0.012,
            0.025799999,
            -0.00031199932,
            0.039424,
            0.018671999,
            0.012216,
            -0.036904,
            -0.03636,
            -0.025023999,
            -0.036536,
            0.028463997,
            -0.015232,
            0.0114480015,
            -0.017407998,
            -0.021952,
            -0.017096,
            0.002775998,
            -0.036904,
            0.00388,
            -0.009303999,
            0.023864001,
            -0.0136319995,
            -0.0244,
            0.036399998,
            0.0025839997,
            0.020735998,
            -0.007904,
            0.030111998,
            0.0041279984,
            -0.001544001,
            -0.014447998,
            0.0026879977,
            -0.0029279995,
            -0.028927999,
            -0.00013600111,
            0.00064000126,
            0.016064,
            0.028639998,
            -0.039568,
            0.0002880001,
            0.0048559997,
            0.035359997,
            0.0021439982,
            -0.036408,
            -0.009024,
            -0.022175997,
            0.016751999,
            0.035784002,
            -0.025568,
            0.025632,
            -0.012248001,
            -0.039352,
            -0.008415999,
            0.010199999,
            0.028959999,
            -0.016288,
            -0.000624001,
            0.023192,
            -0.004895999,
            -0.0033839988,
            -0.0037919998,
            -0.002551999,
            -0.036287997,
            -0.038984,
            -0.019736,
            -0.029496,
            0.014535999,
            -0.039928,
            0.035447996,
            0.033616,
            -0.017,
            0.018063998,
            0.021079998,
            -0.020623999,
            0.012792001,
            0.036512,
            -0.009391999,
            -0.038912,
            0.018800002,
            0.025503997,
            -0.025959998,
            -0.014296,
            0.035152,
            -0.001400001,
            0.0034880016,
            -0.038487997,
            0.028063998,
            -0.031776,
            -0.033456,
            -0.027280001,
            0.012672,
            -0.001408,
            -0.0018160009,
            -0.001559999,
            -0.026008,
            -0.010151999,
            0.019559998,
            0.0081279995,
            0.0149599975,
            0.020111999,
            -0.036032,
            -0.014079999,
            -0.017024,
            0.027439998,
            0.038416,
            -0.02488,
            0.017024001,
            -0.029888,
            0.027951999,
            0.023847999,
            -0.021616,
            -0.033464,
            -0.029959999,
            0.033503998,
            0.007639999,
            -0.012320001,
            0.037088,
            0.029671997,
            -0.008087999,
            -0.028095998,
            0.030447997,
            0.005616002,
            0.0014879989,
            0.026904,
            -0.008280001,
            -0.023832,
            -0.03788,
            0.038135998,
            0.026999997,
            0.0074560023,
            -0.026056,
            0.009879999,
            -0.0051679993,
            -0.0116880005,
            -0.037143998,
            0.037887998,
            0.036663998,
            0.003720002,
            0.0073439977,
            0.028751997,
            -0.012016,
            0.018392,
            0.017536001,
            0.036336,
            -0.021992002,
            0.013888001,
            -0.011407999,
            0.021455998,
            0.009271998,
            0.0105679985,
            0.025447998,
            0.037352,
            -0.024279999,
            -0.019464,
            0.02296,
            0.035143998,
            -0.036552,
            0.018207997,
            0.005023999,
            0.019623999,
            0.015176,
            -0.003808,
            -0.03044,
            -0.015248001,
            0.039559998,
            0.03912,
            -0.023151997,
            0.035247996,
            0.009768,
            -0.019319998,
            0.017304001,
            0.018903999,
            -0.033912,
            0.03304,
            0.020535998,
            0.0012879991,
            -0.024512,
            -0.015536,
            -0.018872,
            -0.018352,
            0.008512001,
            0.030967997,
            0.0011199999,
            0.014032002,
            -0.010871999,
            0.034368,
            0.019623999,
            -0.03644,
            -0.0011680006,
            -0.00011199951,
            -0.035079997,
            -0.034736,
            -0.020432,
            -0.037528,
            0.015711999,
            -0.022431998,
            0.012856002,
            0.030328002,
            -0.015304,
            0.02472,
            0.019488001,
            0.022800002,
            0.014832,
            -0.039375998,
            -0.027863998,
            0.0049760006,
            -0.007056,
            -0.024112,
            0.031472,
            0.008607998,
            -0.009344,
            -0.016456,
            -0.0027040003,
            0.030479997,
            0.035032,
            -0.02204,
            0.0388,
            -0.0132559985,
            0.022695998,
            -0.031728,
            -0.02832,
            0.0158,
            -0.030647999,
            0.030224,
            0.039576,
            -0.017568,
            0.025823997,
            0.027248,
            -0.030327998,
            0.014015999,
            -0.019128,
            0.037104,
            -0.036184,
            -0.02472,
            0.033816,
            0.027919998,
            0.002800002,
            0.022087999,
            0.002168002,
            0.026911996,
            0.00084799767,
            -0.026392,
            -0.018951999,
            0.00776,
            -0.033487998,
            -0.017368,
            -0.036087997,
            -0.016688,
            0.024344001,
            -0.036112,
            0.0018319988,
            0.009664001,
            -0.0099760005,
            -0.0015919995,
            -0.027936,
            -0.006775999,
            0.014640002,
            -0.003096001,
            -0.028327998,
            0.009911999,
            0.014215998,
            -0.016991999,
            -0.011031999,
            -0.0062960004,
            0.030655999,
            -0.025840001,
            -0.005887999,
            -0.02036,
            0.023312,
            0.008847999,
            0.0022559976,
            -0.030744,
            -0.0036080002,
            -0.034592,
            -0.002335999,
            -0.032592,
            -0.0067519997,
            -0.035944,
            -0.03216,
            -0.009447998,
            0.03032,
            0.016999997,
            -0.007952001,
            0.034064002,
            0.017904,
            -0.037104,
            0.014903998,
            -0.01592,
            0.031287998,
            -0.004895999,
            -0.012079999,
            0.0027199984,
            0.015215998,
            0.013319997,
            0.033016,
            0.012016,
            -0.018512001,
            0.011511998,
            -0.012104001,
            -0.014328,
            0.011392002,
            -0.002808001,
            0.0030560016,
            0.015464,
            0.039088,
            -0.013399999,
            -0.028479999,
            -0.024168,
            0.0022319984,
            0.035240002,
            -0.005583999,
            0.013239998,
            0.0030959987,
            0.035864,
            0.006079998,
            -0.033536,
            -0.01404,
            0.022728,
            -0.0010960007,
            0.0046,
            0.014503999,
            0.004535999,
            0.0009520006,
            -0.019568,
            -0.031064,
            0.031023998,
            -0.018311998,
            0.031496,
            0.027519997,
            0.014423999,
            -0.038599998,
            -0.016824,
            -0.033871997,
            -0.009776001,
            0.031079998,
            0.013495998,
            0.0074560023,
            0.018392,
            0.00029600144,
            0.009784002,
            -0.036536,
            0.008792,
            0.037600003,
            -0.0071679996,
            -0.013592,
            -0.0115519995,
            0.030408,
            -0.0103360005,
            0.029823998,
            0.025760002,
            -0.036879998,
            -0.030008001,
            0.026360001,
            -0.01948,
            -0.021416001,
            -0.031928,
            0.024847997,
            -0.0055679986,
            0.012343998,
            -0.035464,
            -0.022832,
            0.005303998,
            -0.023688002,
            -0.015991999,
            0.015296001,
            0.0051280023,
            -0.017064,
            0.033703998,
            -0.039056,
            -0.026447998,
            -0.007967999,
            -0.0043679997,
            0.019271998,
            -0.011407999,
            0.022160001,
            0.0019439983,
            0.014456,
            0.02644,
            0.0055679986,
            -0.0142560005,
            0.020776,
            -0.019407999,
            -0.033768,
            0.03876,
            -0.019768,
            -0.018671999,
            -0.033919998,
            -0.003512001,
            -0.00016000032,
            -0.0000880003,
            0.035152,
            -0.027655998,
            -0.0028640006,
            0.034032002,
            0.017248001,
            0.00024799822,
            0.0075439974,
            0.020831998,
            -0.018815998,
            -0.013527999,
            -0.016672,
            0.019008001,
            0.019208001,
            -0.001703999,
            0.012575998,
            -0.02588
          ]
        },
        "requires_grad": true,
        "persistent": true
      }
    },
    "state_dict_digest": "7634b5a3972e0651d6fda3279793b97c2e82e2bcb7e2059ff51dbcbf09c41688"
  },
  "optimizer_states": {
    "lm_head.weight": {
      "kind": "adam_w",
      "first_moment": [
        0.00054917356,
        -0.00014092278,
        0.00052468025,
        -0.00022067317,
        0.0005073632,
        -0.00019282111,
        0.00049777306,
        -0.00015717332,
        0.0004919482,
        -0.00020478826,
        0.00047683247,
        -0.00013711027,
        0.00047841913,
        -0.00017227436,
        0.00047779092,
        -0.00013947162,
        0.0004951645,
        -0.00022375821,
        0.0005505165,
        -0.0001467877,
        0.00049713743,
        -0.00015101366,
        0.00053980504,
        -0.00020107527,
        0.00055124704,
        -0.00023264883,
        0.00050488056,
        -0.00016050202,
        0.00052196777,
        -0.00015920028,
        0.0005206157,
        -0.00018577123,
        0.0005190765,
        -0.0002300645,
        0.00054126023,
        -0.00016066845,
        0.00047882306,
        -0.00015556408,
        0.00054749683,
        -0.0002132573,
        0.00055090385,
        -0.00016248047,
        0.0004946057,
        -0.00022037663,
        0.00047974213,
        -0.0001905908,
        0.0004956692,
        -0.00021754633,
        0.00047978613,
        -0.00021082733,
        0.0005493853,
        -0.00023277148,
        0.00052872486,
        -0.00014959548,
        0.00053004245,
        -0.00018129288,
        0.00056126085,
        -0.00023579769,
        0.00053559477,
        -0.00024002086,
        0.00049871695,
        -0.00014634585,
        0.00053609477,
        -0.00015498993,
        0.0005185753,
        -0.00014019996,
        0.00054181344,
        -0.0001837344,
        0.0004821535,
        -0.0001447688,
        0.00054999173,
        -0.00014565789,
        0.00051785563,
        -0.00019444754,
        0.0005088155,
        -0.00020834764,
        0.00052007206,
        -0.00021675539,
        0.0005530815,
        -0.00019348659,
        0.0004755979,
        -0.00014744402,
        0.00052170665,
        -0.00020684872,
        0.0004993205,
        -0.00017310254,
        0.0005556016,
        -0.00020282931,
        0.00051218807,
        -0.00020557133,
        0.00051559345,
        -0.00017091395,
        0.0005511292,
        -0.0002220659,
        0.00055096694,
        -0.00022454903,
        0.0005525485,
        -0.00016348468,
        0.0005416181,
        -0.00019758072,
        0.00055302685,
        -0.00023789646,
        0.00050899223,
        -0.00013662857,
        0.0005188488,
        -0.00020851608,
        0.0004985749,
        -0.00021038784,
        0.0005336793,
        -0.00015743676,
        0.00049305236,
        -0.00018081062,
        0.00054532033,
        -0.00022794926,
        0.0004998057,
        -0.0001401385,
        0.0004760829,
        -0.00015231382,
        0.0005096373,
        -0.00013793279,
        0.00048688008,
        -0.00019250333,
        0.0004796383,
        -0.00019215183,
        0.0004958197,
        -0.00013409046,
        0.00051285495,
        -0.0001673318,
        0.0005049097,
        -0.00021419386,
        0.00051462924,
        -0.0002166647,
        0.0005337554,
        -0.00018046988,
        0.0005367751,
        -0.00022676238,
        0.0005481484,
        -0.00018731432,
        0.00048385293,
        -0.00021040096,
        0.00050084665,
        -0.000134753,
        0.00052285654,
        -0.00018966186,
        0.00053383026,
        -0.0002365809,
        0.000528904,
        -0.00023232774,
        0.00050789636,
        -0.0001552013,
        0.0005475289,
        -0.00016056538,
        0.00054760225,
        -0.00016547114,
        0.0004720794,
        -0.00016085475,
        0.0005332305,
        -0.00023226009,
        0.0005056242,
        -0.00022265641,
        0.00053208007,
        -0.00014198254,
        0.0005270388,
        -0.00023354369,
        0.0005323985,
        -0.00020224435,
        0.00049898634,
        -0.00016102771,
        0.00052459264,
        -0.00018538837,
        0.00051039446,
        -0.00017731378,
        0.00049525546,
        -0.0002139257,
        0.00049254415,
        -0.0001741025,
        0.00049098645,
        -0.00013367148,
        0.00053339766,
        -0.00020363784,
        0.0005096338,
        -0.00018376458,
        0.0004885206,
        -0.00013913141,
        0.0005275432,
        -0.00014998084,
        0.0005504764,
        -0.000163347,
        0.00051905925,
        -0.00014663789,
        0.00054547563,
        -0.00017386072,
        0.00055488345,
        -0.00020859225,
        -0.11305077,
        0.009122081,
        0.0005115493,
        -0.0002340849,
        0.0004997759,
        -0.00016013035,
        0.00051533483,
        -0.00016190237,
        0.00050083443,
        -0.00019369705,
        0.0005233036,
        -0.00023358397,
        0.0005103152,
        -0.00021637206,
        0.00054769655,
        -0.00019106832,
        -0.002882364,
        0.050422393,
        0.0005349207,
        -0.00016974211,
        0.0005520551,
        -0.00023699646,
        0.0004927486,
        -0.0001645469,
        0.00047946183,
        -0.00014071136,
        0.0004992624,
        -0.00015041124,
        0.00048924494,
        -0.0002202703,
        0.0005225299,
        -0.00018856768,
        0.000512799,
        -0.00017545783,
        -0.07694474,
        0.073471405,
        0.0004812141,
        -0.00019788611,
        0.0004947965,
        -0.00022727394,
        0.00049725815,
        -0.00014746416,
        0.00054947886,
        -0.00023870713,
        0.0005174284,
        -0.00021189605,
        0.0004804773,
        -0.00013513927,
        0.0005226533,
        -0.00015712314,
        0.0005513509,
        -0.00018304687,
        0.0005354772,
        -0.00017403407,
        0.0005063013,
        -0.0001626064,
        0.00050930545,
        -0.0001611409,
        0.0004754727,
        -0.00015667127,
        0.0005043532,
        -0.00022333954,
        0.00054460694,
        -0.00020527432,
        0.00055222376,
        -0.00018097585,
        0.0004903625,
        -0.00017854536,
        0.0004847823,
        -0.0001383198,
        0.00049559935,
        -0.00020979668,
        0.0004992219,
        -0.00016041737,
        0.0005060738,
        -0.00013219606,
        0.00052023644,
        -0.00023332247,
        0.0005124051,
        -0.0001348791,
        0.0005005399,
        -0.00017982713,
        0.00049883407,
        -0.0002087552,
        0.00053468475,
        -0.00013913494,
        0.00054428057,
        -0.00017635059,
        0.0004929343,
        -0.00014303564,
        0.0005409075,
        -0.00019031108,
        0.0004951948,
        -0.00013079066,
        0.00048327426,
        -0.00021029446,
        0.00055378175,
        -0.00021883505,
        0.00048275696,
        -0.00014184078,
        0.00054547103,
        -0.0001780269,
        0.00051710213,
        -0.00023515968,
        0.00054410135,
        -0.00022525179,
        0.0005450412,
        -0.00014399891,
        0.0005350593,
        -0.00013918083,
        0.00049310003,
        -0.0001361623,
        0.00052450283,
        -0.00016364414,
        0.0005428218,
        -0.00014745544,
        0.0004881022,
        -0.00020994357,
        0.00047074634,
        -0.00014224397,
        0.000536314,
        -0.00021766422,
        0.0004997549,
        -0.000141884,
        0.0005145671,
        -0.00017307798,
        0.00048127671,
        -0.00015459443,
        0.0005007663,
        -0.0001396373,
        0.00049112213,
        -0.0001763055,
        0.0004894821,
        -0.00015461008,
        0.0004835002,
        -0.00018501755,
        0.00047426164,
        -0.00013884844,
        0.0004890758,
        -0.0002278243,
        0.00050822954,
        -0.00014560667,
        0.0005526308,
        -0.00020652637,
        0.00047936145,
        -0.00014766403,
        0.00053839496,
        -0.00018154405,
        0.0005186285,
        -0.00021838045,
        0.00056356314,
        -0.00023150271,
        0.0005469115,
        -0.00016370497,
        0.0005024625,
        -0.00019838611,
        0.00054516917,
        -0.00021834759,
        0.00049113296,
        -0.00015594854,
        0.0005409323,
        -0.0001730692,
        0.00052667,
        -0.0001685232,
        0.00050679094,
        -0.0001528805,
        0.0005452408,
        -0.0002187526,
        0.00050224934,
        -0.00013297451,
        0.00051568385,
        -0.00018620951,
        0.00053665513,
        -0.00019674122,
        0.00051972934,
        -0.0002205299,
        0.0005109373,
        -0.00019856637,
        0.0004967252,
        -0.00015592226,
        0.00052724284,
        -0.00019095954,
        0.0004963718,
        -0.00020205876,
        0.0004950365,
        -0.00013527108,
        0.00048496688,
        -0.0001323708,
        0.0005224309,
        -0.00023475203,
        0.0005531346,
        -0.00021286607,
        0.00054207107,
        -0.00019958807,
        0.00047670296,
        -0.00018719837,
        0.00049966236,
        -0.00020030071,
        0.00051488704,
        -0.00022769814,
        0.0005173413,
        -0.0001899392,
        0.0005043468,
        -0.00013553556,
        0.00048938463,
        -0.00013088681,
        0.00050103886,
        -0.00019739222,
        0.0005151797,
        -0.00023638667,
        0.00047923735,
        -0.00018506753,
        0.0005010848,
        -0.00022522963,
        0.00047960092,
        -0.00020714628,
        0.00055549975,
        -0.0001825185,
        0.00049488625,
        -0.00022833298,
        0.0004961412,
        -0.0002120563,
        0.00052589003,
        -0.00017135162,
        0.0005296331,
        -0.00023368053,
        0.0005189886,
        -0.0001561458,
        0.0005325116,
        -0.00013831165,
        0.00050818507,
        -0.00015069099,
        0.0005218179,
        -0.00015972779,
        0.00051320065,
        -0.00020070089,
        0.00051374227,
        -0.00014183183,
        0.00051322486,
        -0.00020024841,
        0.0005008151,
        -0.00017295501,
        0.00053507544,
        -0.00017815016,
        0.0004931963,
        -0.00015521894,
        0.00053805695,
        -0.00018052892,
        0.0005501063,
        -0.00015263751,
        0.00050877465,
        -0.00016481777,
        0.000507146,
        -0.00019727628,
        0.000496028,
        -0.00016040825,
        0.0005516014,
        -0.00015660538,
        0.0005171878,
        -0.0002282986,
        0.00053066376,
        -0.00022309457,
        0.0005270648,
        -0.00022474621,
        0.0005141102,
        -0.00015660726,
        0.0005543587,
        -0.00021342226,
        0.00052444474,
        -0.00013630005,
        0.0005336127,
        -0.00022578647,
        0.00053532,
        -0.0001514716,
        0.0005154026,
        -0.00020271467,
        0.0005446759,
        -0.00020486006,
        0.0005408601,
        -0.00014720752,
        0.00048878265,
        -0.00016326286,
        0.0005073489,
        -0.00022021343,
        0.00052793766,
        -0.00016911454,
        0.00048629186,
        -0.00013007538,
        0.00048808416,
        -0.00021532907,
        0.0005457725,
        -0.00016287548,
        0.00055462413,
        -0.00023682186,
        0.00055733,
        -0.00019422115,
        0.00053081,
        -0.00019449432,
        0.00050326815,
        -0.00020235137,
        0.00048153143,
        -0.00013511941,
        0.000503142,
        -0.0002062293,
        0.0004951761,
        -0.0002115422,
        0.00054634345,
        -0.00019173912,
        0.00048162823,
        -0.00013519415,
        0.0004890575,
        -0.00017451872,
        0.00047396618,
        -0.00015344527,
        0.00054665713,
        -0.000226239,
        0.00055164186,
        -0.00017845895,
        0.00051612745,
        -0.00021171907,
        0.00055407145,
        -0.00021072332,
        0.00047243107,
        -0.00013716734,
        0.00049573544,
        -0.00015646203,
        0.00050486217,
        -0.00020491407,
        0.0040310025,
        -0.13198769,
        0.0005520789,
        -0.00023304939,
        0.000503374,
        -0.00022775387,
        0.0005024447,
        -0.00022662999,
        0.00054615666,
        -0.0002079705,
        0.0005424666,
        -0.00014909203,
        0.00052540004,
        -0.00018425334,
        0.0005409225,
        -0.00022858763,
        0.00048406018,
        -0.00022224075,
        0.00051243417,
        -0.00013340986,
        0.051079508,
        0.047939874
      ],
      "second_moment": [
        0.0000015120295,
        0.0000012846161,
        0.0000015121783,
        0.0000013103341,
        0.0000014471551,
        0.0000012695318,
        0.0000013961369,
        0.0000012370961,
        0.0000014209666,
        0.0000012624787,
        0.0000013326136,
        0.0000012056631,
        0.0000013636554,
        0.0000012253859,
        0.0000013365672,
        0.0000012076583,
        0.0000014444483,
        0.0000012820368,
        0.000001519875,
        0.0000012886413,
        0.0000013898924,
        0.0000012333048,
        0.0000015339759,
        0.0000013102533,
        0.0000015895384,
        0.0000013497003,
        0.0000014155494,
        0.0000012463948,
        0.0000014561216,
        0.0000012639093,
        0.0000014735646,
        0.0000012786105,
        0.0000015064345,
        0.000001312981,
        0.0000015060764,
        0.0000012854576,
        0.0000013513217,
        0.0000012163416,
        0.0000015636837,
        0.0000013283129,
        0.0000015326048,
        0.0000012968899,
        0.0000014402626,
        0.000001278414,
        0.0000013815182,
        0.0000012389797,
        0.0000014402996,
        0.0000012770313,
        0.0000013985655,
        0.0000012547682,
        0.0000015848091,
        0.000001347819,
        0.000001465733,
        0.0000012663385,
        0.0000014934437,
        0.0000012856775,
        0.0000016184973,
        0.0000013634981,
        0.0000015557935,
        0.0000013401483,
        0.0000013900425,
        0.0000012327588,
        0.0000014885063,
        0.0000012769244,
        0.0000014333783,
        0.0000012512173,
        0.0000015253061,
        0.0000012999424,
        0.0000013504831,
        0.0000012145691,
        0.0000015176583,
        0.0000012875607,
        0.0000014737865,
        0.0000012818332,
        0.000001463404,
        0.0000012830562,
        0.0000014975882,
        0.0000013020197,
        0.0000015623274,
        0.0000013188928,
        0.0000013377772,
        0.0000012089487,
        0.0000014933534,
        0.0000012954803,
        0.0000014122654,
        0.0000012478039,
        0.0000015764184,
        0.0000013286256,
        0.0000014691732,
        0.0000012843702,
        0.0000014495133,
        0.0000012637227,
        0.0000015803843,
        0.0000013398322,
        0.0000015820247,
        0.0000013418847,
        0.0000015377027,
        0.0000012992264,
        0.0000015358037,
        0.0000013095471,
        0.0000015986116,
        0.0000013566836,
        0.0000014072837,
        0.000001239484,
        0.0000014877395,
        0.0000012938008,
        0.0000014409812,
        0.0000012739747,
        0.0000014841938,
        0.0000012755687,
        0.0000014038161,
        0.0000012461282,
        0.0000015702572,
        0.0000013389343,
        0.0000013879153,
        0.0000012311588,
        0.0000013426427,
        0.0000012118242,
        0.0000014098182,
        0.0000012407043,
        0.0000013991897,
        0.0000012477972,
        0.0000013825754,
        0.0000012400021,
        0.0000013739684,
        0.0000012244567,
        0.000001440051,
        0.0000012586954,
        0.0000014590346,
        0.000001283823,
        0.0000014843058,
        0.0000012961837,
        0.0000015021621,
        0.0000012891213,
        0.0000015474794,
        0.0000013287026,
        0.0000015445345,
        0.0000013092055,
        0.0000014073028,
        0.0000012586296,
        0.0000013863457,
        0.0000012300551,
        0.000001482202,
        0.0000012837039,
        0.0000015484134,
        0.0000013348755,
        0.0000015324949,
        0.0000013255349,
        0.0000014186852,
        0.0000012468083,
        0.0000015222972,
        0.0000012921937,
        0.000001526206,
        0.0000012949606,
        0.0000013404576,
        0.0000012121405,
        0.0000015432207,
        0.0000013300696,
        0.0000014678935,
        0.0000012919882,
        0.0000014685522,
        0.0000012665167,
        0.0000015289168,
        0.0000013247188,
        0.0000015161488,
        0.0000013032254,
        0.0000014019853,
        0.0000012404402,
        0.0000014830828,
        0.0000012825896,
        0.0000014419556,
        0.0000012621556,
        0.0000014362705,
        0.0000012734772,
        0.0000013972597,
        0.0000012412904,
        0.000001362358,
        0.0000012191754,
        0.0000015197979,
        0.0000013053825,
        0.0000014452712,
        0.0000012655825,
        0.0000013607629,
        0.0000012187911,
        0.000001463048,
        0.0000012652501,
        0.0000015321347,
        0.0000012968992,
        0.000001439391,
        0.0000012545738,
        0.0000015270901,
        0.0000012975779,
        0.0000015791727,
        0.0000013324237,
        0.04047661,
        0.0002860084,
        0.0000014917697,
        0.0000013088807,
        0.0000014031478,
        0.0000012407875,
        0.0000014418749,
        0.0000012582768,
        0.0000014324204,
        0.0000012632908,
        0.0000015197625,
        0.0000013207997,
        0.0000014737049,
        0.0000012913795,
        0.0000015463213,
        0.0000013113423,
        0.00011634426,
        0.020735353,
        0.0000014967646,
        0.0000012837202,
        0.000001595316,
        0.0000013547588,
        0.0000013901636,
        0.0000012358211,
        0.0000013412805,
        0.0000012099421,
        0.0000013944351,
        0.0000012352606,
        0.0000014279101,
        0.000001272734,
        0.0000014805181,
        0.0000012825861,
        0.0000014462937,
        0.0000012635355,
        0.022196155,
        0.020059042,
        0.0000013908609,
        0.0000012459111,
        0.0000014466316,
        0.0000012848836,
        0.0000013874585,
        0.0000012317337,
        0.0000015900829,
        0.0000013536751,
        0.0000014870898,
        0.0000012950886,
        0.0000013393415,
        0.000001208683,
        0.0000014562354,
        0.0000012635535,
        0.0000015495707,
        0.0000013097857,
        0.000001501505,
        0.0000012869006,
        0.0000014205785,
        0.0000012490543,
        0.0000014266569,
        0.0000012514405,
        0.0000013446893,
        0.0000012134229,
        0.0000014654815,
        0.0000012912711,
        0.0000015497033,
        0.0000013186916,
        0.0000015502528,
        0.0000013093705,
        0.0000013957888,
        0.0000012418243,
        0.0000013515554,
        0.0000012145117,
        0.0000014335803,
        0.0000012703695,
        0.0000014020651,
        0.0000012403572,
        0.0000013969463,
        0.0000012346336,
        0.0000015120484,
        0.0000013173045,
        0.0000014142769,
        0.0000012424359,
        0.0000014204962,
        0.0000012533573,
        0.0000014402143,
        0.0000012728979,
        0.000001473094,
        0.0000012681334,
        0.0000015259149,
        0.000001297826,
        0.0000013739627,
        0.0000012251413,
        0.0000015281731,
        0.000001303491,
        0.0000013700369,
        0.0000012225315,
        0.0000014059123,
        0.0000012579403,
        0.0000015846466,
        0.0000013398444,
        0.0000013496135,
        0.0000012138925,
        0.0000015303046,
        0.0000013001682,
        0.000001506031,
        0.0000013157697,
        0.0000015648645,
        0.0000013351544,
        0.0000015034441,
        0.0000012814386,
        0.0000014740864,
        0.000001268558,
        0.000001369152,
        0.000001222401,
        0.0000014658332,
        0.00000126904,
        0.0000015002165,
        0.0000012805795,
        0.0000014165198,
        0.0000012626675,
        0.0000013229821,
        0.0000012015047,
        0.0000015387009,
        0.0000013200859,
        0.000001389112,
        0.0000012318569,
        0.0000014487105,
        0.0000012639414,
        0.0000013560968,
        0.000001218408,
        0.0000013898159,
        0.0000012319663,
        0.0000013957384,
        0.0000012411831,
        0.0000013748491,
        0.000001227027,
        0.0000013853927,
        0.0000012389719,
        0.0000013281842,
        0.0000012037008,
        0.000001434043,
        0.0000012794421,
        0.0000014121787,
        0.0000012425277,
        0.0000015715822,
        0.00000132833,
        0.0000013463941,
        0.000001212988,
        0.0000015148139,
        0.0000012948102,
        0.0000014954347,
        0.0000013019031,
        0.0000016210221,
        0.00000136188,
        0.0000015230592,
        0.0000012932281,
        0.0000014400988,
        0.0000012685072,
        0.0000015618642,
        0.0000013301598,
        0.0000013797019,
        0.0000012294531,
        0.0000015147237,
        0.0000012921886,
        0.00000147501,
        0.000001274143,
        0.0000014142503,
        0.0000012444627,
        0.0000015623839,
        0.0000013305894,
        0.0000013883606,
        0.0000012308547,
        0.0000014618525,
        0.0000012736651,
        0.0000015224551,
        0.0000013035923,
        0.0000014999247,
        0.0000013049594,
        0.0000014603988,
        0.0000012775821,
        0.0000013927087,
        0.0000012353374,
        0.0000014941253,
        0.0000012893047,
        0.0000014288989,
        0.0000012649468,
        0.000001373014,
        0.0000012240937,
        0.0000013474871,
        0.0000012123181,
        0.0000015186301,
        0.0000013210034,
        0.0000015780547,
        0.000001334055,
        0.000001538581,
        0.000001311549,
        0.0000013719523,
        0.0000012334149,
        0.0000014351072,
        0.0000012670314,
        0.0000014942796,
        0.0000013063459,
        0.0000014688876,
        0.0000012780313,
        0.0000013952827,
        0.0000012340904,
        0.0000013565558,
        0.0000012164163,
        0.000001435933,
        0.0000012662566,
        0.000001502458,
        0.00000131494,
        0.0000013758527,
        0.000001234568,
        0.0000014594401,
        0.0000012895667,
        0.0000013950312,
        0.0000012515369,
        0.0000015601028,
        0.0000013139327,
        0.0000014477539,
        0.0000012859643,
        0.0000014367375,
        0.0000012728216,
        0.0000014752583,
        0.0000012749816,
        0.0000015354603,
        0.0000013276039,
        0.0000014464207,
        0.0000012591244,
        0.0000014669416,
        0.0000012654446,
        0.0000014159306,
        0.0000012448706,
        0.000001456154,
        0.0000012640295,
        0.0000014675963,
        0.0000012816112,
        0.0000014227219,
        0.0000012467374,
        0.0000014672834,
        0.0000012812882,
        0.0000014156674,
        0.0000012492904,
        0.0000015036924,
        0.0000012890441,
        0.0000013839232,
        0.0000012312506,
        0.0000015131534,
        0.0000012937829,
        0.0000015231245,
        0.0000012909469,
        0.0000014282339,
        0.0000012529177,
        0.0000014502775,
        0.0000012726016,
        0.0000013945607,
        0.0000012369792,
        0.0000015300284,
        0.0000012945521,
        0.0000015003458,
        0.0000013093319,
        0.0000015290498,
        0.0000013188549,
        0.0000015214993,
        0.0000013165219,
        0.0000014348132,
        0.0000012541499,
        0.0000015817212,
        0.0000013358407,
        0.000001445088,
        0.0000012559262,
        0.0000015386951,
        0.000001324436,
        0.0000014838807,
        0.0000012743503,
        0.0000014745743,
        0.0000012855087,
        0.0000015495455,
        0.0000013184377,
        0.0000014949462,
        0.000001278338,
        0.0000013799983,
        0.0000012309282,
        0.0000014698946,
        0.0000012916177,
        0.0000014786422,
        0.0000012758484,
        0.0000013488087,
        0.0000012128479,
        0.0000014210492,
        0.0000012672019,
        0.0000015194581,
        0.0000012915377,
        0.0000016018734,
        0.0000013573482,
        0.0000015741326,
        0.0000013240248,
        0.0000015058871,
        0.0000012956729,
        0.0000014452714,
        0.000001272416,
        0.0000013417185,
        0.0000012097822,
        0.000001448195,
        0.0000012753646,
        0.0000014340727,
        0.0000012713809,
        0.0000015433363,
        0.0000013103606,
        0.0000013419951,
        0.0000012099139,
        0.0000013895601,
        0.000001237892,
        0.0000013388087,
        0.0000012101867,
        0.0000015722663,
        0.0000013387943,
        0.0000015467689,
        0.0000013071201,
        0.0000014837868,
        0.0000012935643,
        0.0000015787668,
        0.0000013332882,
        0.0000013228249,
        0.0000012010838,
        0.000001390809,
        0.0000012345723,
        0.0000014511605,
        0.0000012761193,
        0.00003501698,
        0.046704702,
        0.0000015920409,
        0.0000013509755,
        0.0000014669661,
        0.000001294295,
        0.000001463822,
        0.0000012922792,
        0.0000015558965,
        0.0000013225168,
        0.0000015005088,
        0.0000012809529,
        0.000001484185,
        0.0000012826822,
        0.0000015595384,
        0.0000013348197,
        0.0000014178959,
        0.0000012691145,
        0.00000141326,
        0.0000012418955,
        0.012694501,
        0.011605056
      ]
    }
  },
  "loss_history": [
    5.0963583,
    4.8377867,
    5.2481923,
    5.565771
  ],
  "checkpoint_digest": "sha256:51b5dbdf4e5d5b75cf8293fac62f4f2287575b2eedca70e529a56409ee568919"
}
