{
  "schema_version": "psion.a1_minimal_distributed_lm.local_update_checkpoint.v1",
  "lane_id": "a1_minimal_distributed_lm_001",
  "run_id": "a1_minimal_distributed_lm_001.local_update_fixture",
  "assignment_id": "a1_minimal_distributed_lm_001.local_update.assignment.fixture",
  "worker_id": "psionic.local_update.fixture.worker",
  "tokenizer_digest": "sha256:e32b619b67029aba5de26391f9a5f4a32801220ca690ae2c89d565e61069cf63",
  "tokenized_dataset_digest": "sha256:f0b92dc6301fc72e05a4ead6d85a4b5706e51267c116ecd72025a90c43a37905",
  "validation_set_digest": "sha256:6c1c6ca83a2d8eca6cb133f3ec719e822f134452723e72e5201407b28cd3d228",
  "base_checkpoint_ref": "base://a1_minimal_distributed_lm/step-000000",
  "optimizer_step": 2,
  "deterministic_cursor": 2,
  "consumed_token_count": 4,
  "model_state": {
    "root_module_id": "a1_minimal_distributed_lm_local_update",
    "root_module_kind": "cs336_a1_transformer_lm",
    "view": "persistent_only",
    "entries": {
      "layers.0.attn.k_proj.weight": {
        "path": "layers.0.attn.k_proj.weight",
        "kind": "parameter",
        "spec": {
          "layout": {
            "shape": {
              "dims": [
                2,
                2
              ]
            },
            "strides": [
              2,
              1
            ],
            "offset": 0
          },
          "dtype": "F32",
          "device": {
            "kind": "Cpu",
            "ordinal": 0,
            "label": "cpu:0"
          }
        },
        "data": {
          "F32": [
            -0.012423999,
            -0.008743999,
            0.027616,
            0.026567997
          ]
        },
        "requires_grad": true,
        "persistent": true
      },
      "layers.0.attn.output_proj.weight": {
        "path": "layers.0.attn.output_proj.weight",
        "kind": "parameter",
        "spec": {
          "layout": {
            "shape": {
              "dims": [
                2,
                2
              ]
            },
            "strides": [
              2,
              1
            ],
            "offset": 0
          },
          "dtype": "F32",
          "device": {
            "kind": "Cpu",
            "ordinal": 0,
            "label": "cpu:0"
          }
        },
        "data": {
          "F32": [
            0.003976002,
            -0.0002399993,
            -0.0051839994,
            -0.014679999
          ]
        },
        "requires_grad": true,
        "persistent": true
      },
      "layers.0.attn.q_proj.weight": {
        "path": "layers.0.attn.q_proj.weight",
        "kind": "parameter",
        "spec": {
          "layout": {
            "shape": {
              "dims": [
                2,
                2
              ]
            },
            "strides": [
              2,
              1
            ],
            "offset": 0
          },
          "dtype": "F32",
          "device": {
            "kind": "Cpu",
            "ordinal": 0,
            "label": "cpu:0"
          }
        },
        "data": {
          "F32": [
            -0.033408,
            -0.027895998,
            -0.022375997,
            -0.033703998
          ]
        },
        "requires_grad": true,
        "persistent": true
      },
      "layers.0.attn.v_proj.weight": {
        "path": "layers.0.attn.v_proj.weight",
        "kind": "parameter",
        "spec": {
          "layout": {
            "shape": {
              "dims": [
                2,
                2
              ]
            },
            "strides": [
              2,
              1
            ],
            "offset": 0
          },
          "dtype": "F32",
          "device": {
            "kind": "Cpu",
            "ordinal": 0,
            "label": "cpu:0"
          }
        },
        "data": {
          "F32": [
            0.011472001,
            0.0036719989,
            -0.014423999,
            0.026983999
          ]
        },
        "requires_grad": true,
        "persistent": true
      },
      "layers.0.ffn.w1.weight": {
        "path": "layers.0.ffn.w1.weight",
        "kind": "parameter",
        "spec": {
          "layout": {
            "shape": {
              "dims": [
                4,
                2
              ]
            },
            "strides": [
              2,
              1
            ],
            "offset": 0
          },
          "dtype": "F32",
          "device": {
            "kind": "Cpu",
            "ordinal": 0,
            "label": "cpu:0"
          }
        },
        "data": {
          "F32": [
            -0.032495998,
            0.0054640006,
            -0.028048,
            -0.009496,
            -0.030992,
            -0.010112,
            -0.028431999,
            -0.005136001
          ]
        },
        "requires_grad": true,
        "persistent": true
      },
      "layers.0.ffn.w2.weight": {
        "path": "layers.0.ffn.w2.weight",
        "kind": "parameter",
        "spec": {
          "layout": {
            "shape": {
              "dims": [
                2,
                4
              ]
            },
            "strides": [
              4,
              1
            ],
            "offset": 0
          },
          "dtype": "F32",
          "device": {
            "kind": "Cpu",
            "ordinal": 0,
            "label": "cpu:0"
          }
        },
        "data": {
          "F32": [
            -0.010255999,
            0.039424,
            0.0098,
            -0.016903998,
            0.0074639986,
            0.004727998,
            -0.018424,
            -0.007520001
          ]
        },
        "requires_grad": true,
        "persistent": true
      },
      "layers.0.ffn.w3.weight": {
        "path": "layers.0.ffn.w3.weight",
        "kind": "parameter",
        "spec": {
          "layout": {
            "shape": {
              "dims": [
                4,
                2
              ]
            },
            "strides": [
              2,
              1
            ],
            "offset": 0
          },
          "dtype": "F32",
          "device": {
            "kind": "Cpu",
            "ordinal": 0,
            "label": "cpu:0"
          }
        },
        "data": {
          "F32": [
            -0.008599998,
            -0.0035039997,
            0.004383998,
            0.0049760006,
            0.007968001,
            0.030672,
            0.036023997,
            -0.004672
          ]
        },
        "requires_grad": true,
        "persistent": true
      },
      "layers.0.ln1.weight": {
        "path": "layers.0.ln1.weight",
        "kind": "parameter",
        "spec": {
          "layout": {
            "shape": {
              "dims": [
                2
              ]
            },
            "strides": [
              1
            ],
            "offset": 0
          },
          "dtype": "F32",
          "device": {
            "kind": "Cpu",
            "ordinal": 0,
            "label": "cpu:0"
          }
        },
        "data": {
          "F32": [
            1.0,
            1.0
          ]
        },
        "requires_grad": true,
        "persistent": true
      },
      "layers.0.ln2.weight": {
        "path": "layers.0.ln2.weight",
        "kind": "parameter",
        "spec": {
          "layout": {
            "shape": {
              "dims": [
                2
              ]
            },
            "strides": [
              1
            ],
            "offset": 0
          },
          "dtype": "F32",
          "device": {
            "kind": "Cpu",
            "ordinal": 0,
            "label": "cpu:0"
          }
        },
        "data": {
          "F32": [
            1.0,
            1.0
          ]
        },
        "requires_grad": true,
        "persistent": true
      },
      "lm_head.weight": {
        "path": "lm_head.weight",
        "kind": "parameter",
        "spec": {
          "layout": {
            "shape": {
              "dims": [
                272,
                2
              ]
            },
            "strides": [
              2,
              1
            ],
            "offset": 0
          },
          "dtype": "F32",
          "device": {
            "kind": "Cpu",
            "ordinal": 0,
            "label": "cpu:0"
          }
        },
        "data": {
          "F32": [
            -0.25288638,
            0.32739145,
            -0.28920406,
            0.26206845,
            -0.30198857,
            0.28163806,
            -0.30626822,
            0.308285,
            -0.31902194,
            0.27047223,
            -0.32457364,
            0.32151648,
            -0.32795092,
            0.294281,
            -0.32393074,
            0.31978363,
            -0.3185647,
            0.25605947,
            -0.25251794,
            0.32300428,
            -0.3059994,
            0.31301105,
            -0.27152085,
            0.2792908,
            -0.26549518,
            0.2561966,
            -0.2996462,
            0.30653763,
            -0.28247523,
            0.30965027,
            -0.2878679,
            0.28876805,
            -0.29606652,
            0.25404477,
            -0.26375368,
            0.3109746,
            -0.32517084,
            0.30735636,
            -0.26602137,
            0.27080816,
            -0.25465757,
            0.31083497,
            -0.31863013,
            0.25862962,
            -0.32920462,
            0.28014457,
            -0.3171708,
            0.26096112,
            -0.33200663,
            0.2643684,
            -0.2672903,
            0.25585216,
            -0.27432057,
            0.31798583,
            -0.27794015,
            0.29345152,
            -0.256481,
            0.25509846,
            -0.28162086,
            0.24838993,
            -0.3037216,
            0.31683514,
            -0.2679137,
            0.31472766,
            -0.2829275,
            0.3240295,
            -0.26685348,
            0.2930715,
            -0.32024345,
            0.31614643,
            -0.25284785,
            0.32381415,
            -0.2918949,
            0.28165865,
            -0.30286038,
            0.26970762,
            -0.29309517,
            0.26454252,
            -0.2575155,
            0.2869643,
            -0.32730168,
            0.31332606,
            -0.29000178,
            0.2724707,
            -0.30706418,
            0.29604924,
            -0.25659102,
            0.28002134,
            -0.29913238,
            0.2722847,
            -0.29056364,
            0.2997271,
            -0.26393393,
            0.26442736,
            -0.26448205,
            0.26247045,
            -0.2532243,
            0.31027213,
            -0.26921946,
            0.2822523,
            -0.26463,
            0.25234723,
            -0.2919539,
            0.3256355,
            -0.2930464,
            0.27081305,
            -0.3132603,
            0.2668856,
            -0.2706669,
            0.3125103,
            -0.31445518,
            0.28930008,
            -0.27041924,
            0.2590693,
            -0.30170625,
            0.3218003,
            -0.327497,
            0.30958396,
            -0.29150456,
            0.32469812,
            -0.32231575,
            0.27946562,
            -0.32952917,
            0.2789154,
            -0.30483314,
            0.32604104,
            -0.29273486,
            0.3021825,
            -0.30756664,
            0.26467618,
            -0.2983963,
            0.26393652,
            -0.27418485,
            0.29456937,
            -0.27844074,
            0.25887352,
            -0.26128632,
            0.29111677,
            -0.32788515,
            0.26516205,
            -0.29985762,
            0.32611853,
            -0.2862618,
            0.28601563,
            -0.28278816,
            0.25084144,
            -0.28688633,
            0.25352252,
            -0.29584336,
            0.3110332,
            -0.25762936,
            0.31187886,
            -0.25834012,
            0.3080668,
            -0.33277807,
            0.30248153,
            -0.28270233,
            0.25413054,
            -0.30810735,
            0.2581655,
            -0.2698246,
            0.32434225,
            -0.2888738,
            0.25233728,
            -0.27888298,
            0.2774193,
            -0.3056196,
            0.30542397,
            -0.28390673,
            0.2895664,
            -0.29667497,
            0.29409897,
            -0.3170575,
            0.26373503,
            -0.31398994,
            0.29447198,
            -0.3096655,
            0.325804,
            -0.27812833,
            0.27646154,
            -0.29839355,
            0.28897625,
            -0.31296277,
            0.32126606,
            -0.27554637,
            0.31753576,
            -0.25521094,
            0.3101031,
            -0.28343204,
            0.31907532,
            -0.26173887,
            0.30124855,
            -0.25820017,
            0.2754327,
            -0.002467081,
            0.027855165,
            -0.303994,
            0.24998048,
            -0.3046961,
            0.3062172,
            -0.28945413,
            0.3067198,
            -0.30858356,
            0.2801696,
            -0.29249442,
            0.25183278,
            -0.30257773,
            0.2636345,
            -0.26231846,
            0.28813067,
            0.23000866,
            -0.2506745,
            -0.27137357,
            0.30308133,
            -0.26541233,
            0.25291783,
            -0.31239435,
            0.30194682,
            -0.32240292,
            0.31900477,
            -0.3037746,
            0.3137317,
            -0.32392251,
            0.25808734,
            -0.2864151,
            0.28682768,
            -0.294015,
            0.29584038,
            0.29374635,
            -0.28985947,
            -0.3287563,
            0.27462125,
            -0.31943333,
            0.253276,
            -0.3053547,
            0.31579143,
            -0.26813546,
            0.2512403,
            -0.2949443,
            0.26800102,
            -0.32056928,
            0.32346037,
            -0.28147888,
            0.31135482,
            -0.25751472,
            0.29486942,
            -0.2715004,
            0.29980806,
            -0.2985427,
            0.3050684,
            -0.2953302,
            0.30657482,
            -0.3287344,
            0.3061189,
            -0.30945548,
            0.25747967,
            -0.26754308,
            0.27664804,
            -0.2563414,
            0.29660007,
            -0.31682065,
            0.29075342,
            -0.31664175,
            0.3214702,
            -0.31612012,
            0.26699477,
            -0.3052935,
            0.30592772,
            -0.29421532,
            0.32873458,
            -0.29542905,
            0.25165114,
            -0.28827238,
            0.32741326,
            -0.3068377,
            0.29095057,
            -0.31276637,
            0.26818937,
            -0.26681086,
            0.326893,
            -0.26329333,
            0.29915065,
            -0.3090644,
            0.31873542,
            -0.26876634,
            0.2878263,
            -0.30497855,
            0.32853758,
            -0.32844752,
            0.26517913,
            -0.26088625,
            0.26730126,
            -0.319209,
            0.31849656,
            -0.2624039,
            0.29800105,
            -0.29874805,
            0.24982858,
            -0.27116507,
            0.2610103,
            -0.25741476,
            0.3244521,
            -0.2664491,
            0.32690543,
            -0.30788913,
            0.32410938,
            -0.2806561,
            0.3065055,
            -0.26013517,
            0.32147,
            -0.32358634,
            0.26600617,
            -0.3315286,
            0.31684357,
            -0.2774771,
            0.2659046,
            -0.3020164,
            0.32043445,
            -0.29190636,
            0.29791343,
            -0.32254136,
            0.30838865,
            -0.30066484,
            0.32230473,
            -0.31573504,
            0.2925884,
            -0.31423903,
            0.30931428,
            -0.3246369,
            0.284917,
            -0.32744998,
            0.3198767,
            -0.32516453,
            0.25217998,
            -0.29406956,
            0.31854987,
            -0.26002845,
            0.27673998,
            -0.32349804,
            0.31357512,
            -0.26983136,
            0.29433256,
            -0.29474756,
            0.2630955,
            -0.25361112,
            0.2587598,
            -0.25872993,
            0.30935135,
            -0.30765873,
            0.27670765,
            -0.26905775,
            0.26653212,
            -0.31276816,
            0.30846217,
            -0.2660301,
            0.30126888,
            -0.27927443,
            0.3029766,
            -0.2965993,
            0.3127082,
            -0.2690525,
            0.266226,
            -0.29817945,
            0.3276704,
            -0.29278687,
            0.2878127,
            -0.27389643,
            0.2822594,
            -0.29399806,
            0.2615575,
            -0.29931718,
            0.27759337,
            -0.30713633,
            0.30913663,
            -0.28216755,
            0.28555846,
            -0.31423265,
            0.2731195,
            -0.30579898,
            0.3250298,
            -0.31559372,
            0.32612544,
            -0.29351604,
            0.2508127,
            -0.26055527,
            0.27186632,
            -0.2690966,
            0.28074688,
            -0.33178747,
            0.28244933,
            -0.31071293,
            0.27488026,
            -0.29979128,
            0.2553683,
            -0.2917187,
            0.28511006,
            -0.29645178,
            0.32592675,
            -0.31088465,
            0.32778764,
            -0.30892295,
            0.2773124,
            -0.3007998,
            0.24863432,
            -0.328933,
            0.2843955,
            -0.31294367,
            0.2556144,
            -0.3316757,
            0.26721776,
            -0.25343126,
            0.29583758,
            -0.31949684,
            0.2524612,
            -0.3159104,
            0.26529688,
            -0.28047714,
            0.3006732,
            -0.28638875,
            0.25256163,
            -0.28495592,
            0.3116587,
            -0.2688247,
            0.32725537,
            -0.29487807,
            0.314583,
            -0.2827043,
            0.30922037,
            -0.29740918,
            0.27620676,
            -0.28799212,
            0.3221624,
            -0.29731756,
            0.2765625,
            -0.30555063,
            0.29634207,
            -0.2725352,
            0.29654783,
            -0.31058282,
            0.3092711,
            -0.27000126,
            0.29507992,
            -0.25385526,
            0.31839508,
            -0.29641014,
            0.30364412,
            -0.3028642,
            0.2781375,
            -0.30849546,
            0.30555755,
            -0.2530386,
            0.31550404,
            -0.29763934,
            0.25518566,
            -0.28377396,
            0.2609431,
            -0.28751028,
            0.25919628,
            -0.28986722,
            0.31069583,
            -0.25947285,
            0.2715975,
            -0.27649477,
            0.32779884,
            -0.2813385,
            0.2592245,
            -0.26812202,
            0.3173682,
            -0.2955486,
            0.27490819,
            -0.26741144,
            0.27698004,
            -0.26201636,
            0.32140696,
            -0.31619865,
            0.30248773,
            -0.3060553,
            0.2602786,
            -0.27811998,
            0.30267647,
            -0.31391197,
            0.32806444,
            -0.32437143,
            0.26180524,
            -0.25970578,
            0.30984724,
            -0.262941,
            0.2533995,
            -0.25355363,
            0.28696412,
            -0.27923134,
            0.28325754,
            -0.3074448,
            0.27371222,
            -0.3194911,
            0.3235947,
            -0.30813932,
            0.27067325,
            -0.31679177,
            0.265584,
            -0.2637313,
            0.28742847,
            -0.3194031,
            0.32354742,
            -0.31754872,
            0.29374248,
            -0.32981378,
            0.30846685,
            -0.2688707,
            0.26057917,
            -0.2565007,
            0.29848376,
            -0.29619008,
            0.26797748,
            -0.25931734,
            0.27366233,
            -0.32908726,
            0.32098457,
            -0.3082102,
            0.3085994,
            -0.3062477,
            0.27190578,
            -0.29247516,
            0.26911968,
            -0.26476574,
            0.25599605,
            -0.31106234,
            0.2539214,
            -0.31181088,
            0.2546857,
            -0.26647556,
            0.27475128,
            -0.26074234,
            0.32014918,
            -0.2829413,
            0.2905534,
            -0.27473617,
            0.25799257,
            -0.3293497,
            0.2559554,
            -0.28802052,
            0.3285607,
            -0.29630455,
            0.32190716
          ]
        },
        "requires_grad": true,
        "persistent": true
      },
      "ln_final.weight": {
        "path": "ln_final.weight",
        "kind": "parameter",
        "spec": {
          "layout": {
            "shape": {
              "dims": [
                2
              ]
            },
            "strides": [
              1
            ],
            "offset": 0
          },
          "dtype": "F32",
          "device": {
            "kind": "Cpu",
            "ordinal": 0,
            "label": "cpu:0"
          }
        },
        "data": {
          "F32": [
            1.0,
            1.0
          ]
        },
        "requires_grad": true,
        "persistent": true
      },
      "token_embeddings.weight": {
        "path": "token_embeddings.weight",
        "kind": "parameter",
        "spec": {
          "layout": {
            "shape": {
              "dims": [
                272,
                2
              ]
            },
            "strides": [
              2,
              1
            ],
            "offset": 0
          },
          "dtype": "F32",
          "device": {
            "kind": "Cpu",
            "ordinal": 0,
            "label": "cpu:0"
          }
        },
        "data": {
          "F32": [
            0.015488,
            0.034056,
            -0.0148,
            -0.02056,
            0.035544,
            0.014664001,
            -0.002392001,
            -0.015543999,
            0.016448002,
            0.0077680014,
            0.016928,
            0.013424001,
            -0.008424001,
            0.017872,
            -0.037616,
            0.024008002,
            -0.011024,
            -0.013568001,
            0.023400001,
            -0.037104,
            0.027439998,
            -0.032263998,
            -0.028703999,
            -0.0034159992,
            -0.030592,
            0.008095998,
            -0.004087999,
            -0.035408,
            0.020079998,
            -0.014384,
            0.027712,
            -0.008512001,
            -0.034904,
            -0.03608,
            -0.0142319985,
            -0.03972,
            0.035071995,
            0.0022079991,
            0.035096,
            -0.033632,
            -0.0028480005,
            0.015503998,
            -0.032784,
            -0.008776,
            0.027536001,
            0.037871998,
            -0.008176,
            -0.012223999,
            0.030143999,
            0.023128,
            -0.030935999,
            0.034928,
            -0.0018000007,
            0.026936002,
            0.017055998,
            0.030488,
            -0.022031998,
            0.00093599793,
            -0.031608,
            -0.015975999,
            -0.035016,
            -0.005311999,
            -0.011935999,
            -0.013808,
            -0.039015997,
            0.025144,
            0.019879999,
            0.007055998,
            0.0025439977,
            -0.029536,
            0.0013360024,
            0.012255997,
            0.018456,
            -0.006056001,
            0.034752,
            0.03692,
            0.0017840003,
            -0.020232,
            -0.026687998,
            -0.006775999,
            0.007607999,
            -0.032648,
            0.03732,
            -0.02572,
            -0.034879997,
            -0.026143998,
            0.0038560007,
            -0.031535998,
            0.0041359994,
            -0.0026320005,
            -0.033784,
            0.0392,
            -0.01924,
            0.023920001,
            -0.014544,
            -0.020296002,
            0.0086240005,
            0.021384,
            -0.007191999,
            0.038639996,
            0.023904,
            -0.012967999,
            0.033735998,
            0.034615997,
            -0.034232,
            0.006919999,
            0.033784,
            -0.03156,
            0.038688,
            0.009911999,
            -0.019768,
            0.014223999,
            -0.039152,
            -0.006256001,
            0.022504,
            -0.0082640005,
            0.024344001,
            0.025760002,
            0.0049119997,
            0.013544002,
            0.022807999,
            0.0071600005,
            0.020752,
            0.013903999,
            0.024735998,
            0.014720001,
            0.018288001,
            0.009000001,
            -0.010352001,
            0.028415998,
            0.011608,
            -0.034264,
            0.016336001,
            -0.039688,
            -0.025047997,
            -0.017135998,
            0.009320001,
            0.021575999,
            -0.012,
            0.025799999,
            -0.00031199932,
            0.039424,
            0.018671999,
            0.012216,
            -0.036904,
            -0.03636,
            -0.025023999,
            -0.036536,
            0.028463997,
            -0.015232,
            0.0114480015,
            -0.017407998,
            -0.021952,
            -0.017096,
            0.002775998,
            -0.036904,
            0.00388,
            -0.009303999,
            0.023864001,
            -0.0136319995,
            -0.0244,
            0.036399998,
            0.0025839997,
            0.020735998,
            -0.007904,
            0.030111998,
            0.0041279984,
            -0.001544001,
            -0.014447998,
            0.0026879977,
            -0.0029279995,
            -0.028927999,
            -0.00013600111,
            0.00064000126,
            0.016064,
            0.028639998,
            -0.039568,
            0.0002880001,
            0.0048559997,
            0.035359997,
            0.0021439982,
            -0.036408,
            -0.009024,
            -0.022175997,
            0.016751999,
            0.035784002,
            -0.025568,
            0.025632,
            -0.012248001,
            -0.039352,
            -0.008415999,
            0.010199999,
            0.028959999,
            -0.016288,
            -0.000624001,
            0.023192,
            -0.004895999,
            -0.0033839988,
            -0.0037919998,
            -0.002551999,
            -0.036287997,
            -0.038984,
            -0.019736,
            -0.029496,
            0.014535999,
            -0.039928,
            0.035447996,
            0.033616,
            -0.017,
            0.018063998,
            0.021079998,
            -0.020623999,
            0.012792001,
            0.036512,
            -0.009391999,
            -0.038912,
            0.018800002,
            0.025503997,
            -0.025959998,
            -0.014296,
            0.035152,
            -0.001400001,
            0.0034880016,
            -0.038487997,
            0.028063998,
            -0.031776,
            -0.033456,
            -0.027280001,
            0.012672,
            -0.001408,
            -0.0018160009,
            -0.001559999,
            -0.026008,
            -0.010151999,
            0.019559998,
            0.0081279995,
            0.0149599975,
            0.020111999,
            -0.036032,
            -0.014079999,
            -0.017024,
            0.027439998,
            0.038416,
            -0.02488,
            0.017024001,
            -0.029888,
            0.027951999,
            0.023847999,
            -0.021616,
            -0.033464,
            -0.029959999,
            0.033503998,
            0.007639999,
            -0.012320001,
            0.037088,
            0.029671997,
            -0.008087999,
            -0.028095998,
            0.030447997,
            0.005616002,
            0.0014879989,
            0.026904,
            -0.008280001,
            -0.023832,
            -0.03788,
            0.038135998,
            0.026999997,
            0.0074560023,
            -0.026056,
            0.009879999,
            -0.0051679993,
            -0.0116880005,
            -0.037143998,
            0.037887998,
            0.036663998,
            0.003720002,
            0.0073439977,
            0.028751997,
            -0.012016,
            0.018392,
            0.017536001,
            0.036336,
            -0.021992002,
            0.013888001,
            -0.011407999,
            0.021455998,
            0.009271998,
            0.0105679985,
            0.025447998,
            0.037352,
            -0.024279999,
            -0.019464,
            0.02296,
            0.035143998,
            -0.036552,
            0.018207997,
            0.005023999,
            0.019623999,
            0.015176,
            -0.003808,
            -0.03044,
            -0.015248001,
            0.039559998,
            0.03912,
            -0.023151997,
            0.035247996,
            0.009768,
            -0.019319998,
            0.017304001,
            0.018903999,
            -0.033912,
            0.03304,
            0.020535998,
            0.0012879991,
            -0.024512,
            -0.015536,
            -0.018872,
            -0.018352,
            0.008512001,
            0.030967997,
            0.0011199999,
            0.014032002,
            -0.010871999,
            0.034368,
            0.019623999,
            -0.03644,
            -0.0011680006,
            -0.00011199951,
            -0.035079997,
            -0.034736,
            -0.020432,
            -0.037528,
            0.015711999,
            -0.022431998,
            0.012856002,
            0.030328002,
            -0.015304,
            0.02472,
            0.019488001,
            0.022800002,
            0.014832,
            -0.039375998,
            -0.027863998,
            0.0049760006,
            -0.007056,
            -0.024112,
            0.031472,
            0.008607998,
            -0.009344,
            -0.016456,
            -0.0027040003,
            0.030479997,
            0.035032,
            -0.02204,
            0.0388,
            -0.0132559985,
            0.022695998,
            -0.031728,
            -0.02832,
            0.0158,
            -0.030647999,
            0.030224,
            0.039576,
            -0.017568,
            0.025823997,
            0.027248,
            -0.030327998,
            0.014015999,
            -0.019128,
            0.037104,
            -0.036184,
            -0.02472,
            0.033816,
            0.027919998,
            0.002800002,
            0.022087999,
            0.002168002,
            0.026911996,
            0.00084799767,
            -0.026392,
            -0.018951999,
            0.00776,
            -0.033487998,
            -0.017368,
            -0.036087997,
            -0.016688,
            0.024344001,
            -0.036112,
            0.0018319988,
            0.009664001,
            -0.0099760005,
            -0.0015919995,
            -0.027936,
            -0.006775999,
            0.014640002,
            -0.003096001,
            -0.028327998,
            0.009911999,
            0.014215998,
            -0.016991999,
            -0.011031999,
            -0.0062960004,
            0.030655999,
            -0.025840001,
            -0.005887999,
            -0.02036,
            0.023312,
            0.008847999,
            0.0022559976,
            -0.030744,
            -0.0036080002,
            -0.034592,
            -0.002335999,
            -0.032592,
            -0.0067519997,
            -0.035944,
            -0.03216,
            -0.009447998,
            0.03032,
            0.016999997,
            -0.007952001,
            0.034064002,
            0.017904,
            -0.037104,
            0.014903998,
            -0.01592,
            0.031287998,
            -0.004895999,
            -0.012079999,
            0.0027199984,
            0.015215998,
            0.013319997,
            0.033016,
            0.012016,
            -0.018512001,
            0.011511998,
            -0.012104001,
            -0.014328,
            0.011392002,
            -0.002808001,
            0.0030560016,
            0.015464,
            0.039088,
            -0.013399999,
            -0.028479999,
            -0.024168,
            0.0022319984,
            0.035240002,
            -0.005583999,
            0.013239998,
            0.0030959987,
            0.035864,
            0.006079998,
            -0.033536,
            -0.01404,
            0.022728,
            -0.0010960007,
            0.0046,
            0.014503999,
            0.004535999,
            0.0009520006,
            -0.019568,
            -0.031064,
            0.031023998,
            -0.018311998,
            0.031496,
            0.027519997,
            0.014423999,
            -0.038599998,
            -0.016824,
            -0.033871997,
            -0.009776001,
            0.031079998,
            0.013495998,
            0.0074560023,
            0.018392,
            0.00029600144,
            0.009784002,
            -0.036536,
            0.008792,
            0.037600003,
            -0.0071679996,
            -0.013592,
            -0.0115519995,
            0.030408,
            -0.0103360005,
            0.029823998,
            0.025760002,
            -0.036879998,
            -0.030008001,
            0.026360001,
            -0.01948,
            -0.021416001,
            -0.031928,
            0.024847997,
            -0.0055679986,
            0.012343998,
            -0.035464,
            -0.022832,
            0.005303998,
            -0.023688002,
            -0.015991999,
            0.015296001,
            0.0051280023,
            -0.017064,
            0.033703998,
            -0.039056,
            -0.026447998,
            -0.007967999,
            -0.0043679997,
            0.019271998,
            -0.011407999,
            0.022160001,
            0.0019439983,
            0.014456,
            0.02644,
            0.0055679986,
            -0.0142560005,
            0.020776,
            -0.019407999,
            -0.033768,
            0.03876,
            -0.019768,
            -0.018671999,
            -0.033919998,
            -0.003512001,
            -0.00016000032,
            -0.0000880003,
            0.035152,
            -0.027655998,
            -0.0028640006,
            0.034032002,
            0.017248001,
            0.00024799822,
            0.0075439974,
            0.020831998,
            -0.018815998,
            -0.013527999,
            -0.016672,
            0.019008001,
            0.019208001,
            -0.001703999,
            0.012575998,
            -0.02588
          ]
        },
        "requires_grad": true,
        "persistent": true
      }
    },
    "state_dict_digest": "74a9bc9febed57e854bb29f10504ab0629d635814f9c732ebf01f891310162ff"
  },
  "optimizer_states": {
    "lm_head.weight": {
      "kind": "adam_w",
      "first_moment": [
        0.0006265235,
        -0.00057696697,
        0.000627175,
        -0.0006049391,
        0.00061056745,
        -0.0005868986,
        0.00059738685,
        -0.00056820427,
        0.00060341106,
        -0.0005874586,
        0.00058038323,
        -0.000553082,
        0.000588354,
        -0.0005687366,
        0.00058144133,
        -0.0005543836,
        0.0006093709,
        -0.000597118,
        0.00062851777,
        -0.0005799021,
        0.0005957697,
        -0.0005653455,
        0.0006326287,
        -0.000600666,
        0.0006464062,
        -0.0006187102,
        0.0006024926,
        -0.00057185546,
        0.0006129509,
        -0.0005765662,
        0.0006174344,
        -0.000587862,
        0.0006256323,
        -0.0006075314,
        0.0006253971,
        -0.0005831199,
        0.0005852592,
        -0.00056159776,
        0.0006399915,
        -0.00060858624,
        0.00063185283,
        -0.0005868519,
        0.00060831313,
        -0.00059538975,
        0.0005928986,
        -0.0005772452,
        0.00060838286,
        -0.000594429,
        0.0005971067,
        -0.0005863562,
        0.0006452572,
        -0.0006181938,
        0.00061530597,
        -0.0005744735,
        0.00062245224,
        -0.0005887769,
        0.0006533967,
        -0.00062326016,
        0.0006381027,
        -0.0006173165,
        0.0005958367,
        -0.0005638286,
        0.0006210139,
        -0.00057906646,
        0.00060708006,
        -0.00056732155,
        0.0006303633,
        -0.00059348124,
        0.00058519526,
        -0.00055800274,
        0.0006279647,
        -0.0005792548,
        0.00061747106,
        -0.00059089134,
        0.00061467255,
        -0.0005943581,
        0.00062346726,
        -0.00060170575,
        0.00063946005,
        -0.000601306,
        0.00058164675,
        -0.0005570985,
        0.00062243646,
        -0.00059769175,
        0.0006015388,
        -0.00057563913,
        0.0006429632,
        -0.00060630805,
        0.0006162077,
        -0.00059415016,
        0.00061128486,
        -0.0005797271,
        0.00064411527,
        -0.00061375886,
        0.00064453116,
        -0.0006148581,
        0.00063309306,
        -0.0005877926,
        0.0006330558,
        -0.00059964176,
        0.00064863585,
        -0.0006217124,
        0.0006003679,
        -0.00056285015,
        0.0006209892,
        -0.00059756194,
        0.0006087014,
        -0.00059207855,
        0.00061997393,
        -0.0005793923,
        0.0005991854,
        -0.00057708257,
        0.00064168044,
        -0.00061469583,
        0.0005953,
        -0.00056151004,
        0.0005829114,
        -0.0005593396,
        0.0006010265,
        -0.0005636045,
        0.00059772626,
        -0.0005803453,
        0.0005931541,
        -0.00057790836,
        0.000591628,
        -0.000557704,
        0.00060885004,
        -0.00057730736,
        0.00061344646,
        -0.0005957988,
        0.0006200387,
        -0.00059996767,
        0.00062462373,
        -0.00058955315,
        0.0006360495,
        -0.0006115041,
        0.000635088,
        -0.0005970226,
        0.0005995423,
        -0.00058744865,
        0.00059490046,
        -0.00055953977,
        0.0006196324,
        -0.0005902941,
        0.00063626526,
        -0.00061515905,
        0.0006322725,
        -0.0006116453,
        0.0006033285,
        -0.0005704883,
        0.0006293382,
        -0.00058498606,
        0.000630358,
        -0.00058715977,
        0.0005821268,
        -0.0005617695,
        0.0006349761,
        -0.00061295816,
        0.0006156617,
        -0.00059990026,
        0.0006159294,
        -0.00057222083,
        0.00063135824,
        -0.0006116306,
        0.0006282048,
        -0.0005989126,
        0.0005989116,
        -0.0005702545,
        0.00061985437,
        -0.0005889206,
        0.0006093137,
        -0.0005809389,
        0.00060736906,
        -0.0005926459,
        0.0005975118,
        -0.0005739648,
        0.00058852806,
        -0.0005560289,
        0.00062912004,
        -0.0005998532,
        0.00061014295,
        -0.0005835627,
        0.0005880554,
        -0.00055758125,
        0.00061463757,
        -0.0005742781,
        0.0006317543,
        -0.000587102,
        0.0006086441,
        -0.00057023263,
        0.0006306885,
        -0.0005902118,
        0.000643694,
        -0.0006087163,
        -0.065888114,
        0.0045411168,
        0.0006217711,
        -0.0006070426,
        0.0005992262,
        -0.0005701097,
        0.0006093222,
        -0.00057569967,
        0.0006066671,
        -0.0005852535,
        0.0006290238,
        -0.0006104853,
        0.0006172785,
        -0.00059848605,
        0.00063556444,
        -0.00059856987,
        -0.00390994,
        0.06224726,
        0.0006232034,
        -0.0005851626,
        0.00064783235,
        -0.00062099134,
        0.0005957202,
        -0.0005698449,
        0.0005827234,
        -0.0005554324,
        0.0005969787,
        -0.00056574534,
        0.00060495536,
        -0.00059365015,
        0.0006192046,
        -0.0005897033,
        0.000610446,
        -0.0005808645,
        -0.09540866,
        0.09071779,
        0.0005953114,
        -0.00058097043,
        0.00060988194,
        -0.00059862057,
        0.00059514504,
        -0.00056385633,
        0.00064656814,
        -0.0006209987,
        0.0006207996,
        -0.00059866003,
        0.00058226497,
        -0.0005533836,
        0.00061297015,
        -0.0005758732,
        0.0006362496,
        -0.0005960914,
        0.00062441366,
        -0.0005872277,
        0.00060380093,
        -0.00057321234,
        0.00060539035,
        -0.0005735041,
        0.00058339816,
        -0.0005610258,
        0.00061501155,
        -0.00059981574,
        0.0006365197,
        -0.00060405035,
        0.0006363842,
        -0.0005954333,
        0.0005970502,
        -0.0005752398,
        0.0005855667,
        -0.0005560734,
        0.0006067239,
        -0.00059087545,
        0.0005989372,
        -0.0005700624,
        0.0005976768,
        -0.00056006794,
        0.0006270463,
        -0.0006094065,
        0.0006021685,
        -0.0005631561,
        0.0006036582,
        -0.00057898555,
        0.00060852396,
        -0.0005914183,
        0.0006170175,
        -0.0005717946,
        0.00063043303,
        -0.0005909502,
        0.0005915741,
        -0.00056061737,
        0.00063112506,
        -0.00059614825,
        0.00059059623,
        -0.0005561138,
        0.00059916073,
        -0.0005872175,
        0.0006451181,
        -0.00061308173,
        0.0005849954,
        -0.0005569412,
        0.0006315218,
        -0.0005920584,
        0.000625472,
        -0.00060928165,
        0.00064034696,
        -0.00061306875,
        0.0006245081,
        -0.0005770364,
        0.0006172628,
        -0.00057192845,
        0.0005903328,
        -0.00055774057,
        0.0006154278,
        -0.00057928596,
        0.0006237806,
        -0.00057785277,
        0.00060208776,
        -0.0005885822,
        0.00057761057,
        -0.0005533597,
        0.0006338585,
        -0.00060716213,
        0.0005956099,
        -0.0005622397,
        0.00061107555,
        -0.00058036234,
        0.000586592,
        -0.00056194724,
        0.0005958029,
        -0.0005615934,
        0.00059707026,
        -0.0005744898,
        0.00059170433,
        -0.0005645156,
        0.0005940945,
        -0.0005759508,
        0.0005791261,
        -0.0005530164,
        0.00060643954,
        -0.0005970673,
        0.0006016454,
        -0.0005664537,
        0.0006418444,
        -0.000607083,
        0.000584029,
        -0.00055836973,
        0.00062776444,
        -0.00059145613,
        0.00062290137,
        -0.00060200156,
        0.0006539506,
        -0.00062195765,
        0.00062957034,
        -0.0005861736,
        0.0006086462,
        -0.00058786804,
        0.0006395796,
        -0.0006102092,
        0.00059299916,
        -0.00056560826,
        0.0006276609,
        -0.00058847247,
        0.00061776425,
        -0.0005820922,
        0.00060217705,
        -0.0005691423,
        0.00063970906,
        -0.00061041786,
        0.0005954326,
        -0.00055921846,
        0.0006144296,
        -0.0005865296,
        0.00062975596,
        -0.0005977358,
        0.00062404026,
        -0.0006033321,
        0.00061398145,
        -0.00059059385,
        0.00059648405,
        -0.0005673369,
        0.00062265265,
        -0.0005922315,
        0.0006056027,
        -0.00058761553,
        0.0005913686,
        -0.0005579624,
        0.0005845211,
        -0.00055360957,
        0.0006287236,
        -0.0006107569,
        0.0006434711,
        -0.00061013765,
        0.00063375244,
        -0.0006006891,
        0.00059031846,
        -0.0005747783,
        0.0006072924,
        -0.0005878541,
        0.0006225111,
        -0.0006051265,
        0.0006162279,
        -0.00058870995,
        0.00059724395,
        -0.00056095293,
        0.0005869871,
        -0.0005543544,
        0.00060755294,
        -0.00058697583,
        0.0006245288,
        -0.00060925144,
        0.0005914564,
        -0.00057463173,
        0.0006133695,
        -0.000599659,
        0.00059622596,
        -0.0005846307,
        0.00063876825,
        -0.0005971204,
        0.00061016117,
        -0.00059913745,
        0.0006075314,
        -0.0005920731,
        0.00061783975,
        -0.00058309693,
        0.00063301565,
        -0.0006125017,
        0.0006104736,
        -0.0005743209,
        0.0006154864,
        -0.0005707793,
        0.00060261803,
        -0.00056862796,
        0.00061296136,
        -0.0005767499,
        0.00061583734,
        -0.00059226155,
        0.0006043632,
        -0.00056653435,
        0.0006157594,
        -0.0005920648,
        0.0006024428,
        -0.0005760397,
        0.00062498776,
        -0.00058892806,
        0.00059414154,
        -0.0005659353,
        0.0006273465,
        -0.0005909004,
        0.00062940497,
        -0.0005823128,
        0.0006057909,
        -0.00057494396,
        0.0006113448,
        -0.0005888312,
        0.0005969405,
        -0.0005690653,
        0.0006311327,
        -0.00058449444,
        0.0006240776,
        -0.0006061234,
        0.0006314385,
        -0.00060791365,
        0.000629524,
        -0.0006075587,
        0.0006075024,
        -0.00057301746,
        0.00064435985,
        -0.00061076815,
        0.0006100124,
        -0.0005674547,
        0.0006338558,
        -0.0006100724,
        0.000619832,
        -0.00057730277,
        0.0006176311,
        -0.0005938572,
        0.000636478,
        -0.00060388295,
        0.0006224924,
        -0.0005771484,
        0.00059299124,
        -0.00056804804,
        0.00061622704,
        -0.0005993185,
        0.0006186801,
        -0.0005827421,
        0.0005849007,
        -0.00055305206,
        0.0006031993,
        -0.000591026,
        0.0006286857,
        -0.0005854627,
        0.00064941763,
        -0.0006217007,
        0.0006422978,
        -0.0006029345,
        0.0006256171,
        -0.00059492106,
        0.0006099661,
        -0.00058990764,
        0.00058291707,
        -0.0005537035,
        0.0006106887,
        -0.00059162267,
        0.00060682313,
        -0.00059153576,
        0.0006348462,
        -0.00059845723,
        0.000582992,
        -0.00055376533,
        0.00059542316,
        -0.00057305756,
        0.0005818216,
        -0.00055916293,
        0.000642165,
        -0.00061431446,
        0.00063550955,
        -0.0005941347,
        0.0006199479,
        -0.0005981741,
        0.00064362027,
        -0.00060944265,
        0.0005776603,
        -0.000551731,
        0.0005959731,
        -0.0005672628,
        0.000611491,
        -0.00059156504,
        0.00062206195,
        -0.0005989137,
        0.0006470155,
        -0.00061915326,
        0.0006153288,
        -0.0006015429,
        0.0006145123,
        -0.00060073205,
        0.00063805305,
        -0.0006057556,
        0.0006238768,
        -0.00057845225,
        0.0006201316,
        -0.00058866385,
        0.0006390432,
        -0.000613634,
        0.0006021478,
        -0.0005929135,
        0.0006019013,
        -0.0005625405,
        0.0005988664,
        -0.0005635033
      ],
      "second_moment": [
        0.000001175164,
        0.0000010423255,
        0.0000011650535,
        0.0000011610446,
        0.0000011060134,
        0.0000010930544,
        0.0000010621034,
        0.0000010224157,
        0.000001077566,
        0.0000010998066,
        0.000001003043,
        9.705185e-7,
        0.0000010269655,
        0.0000010298567,
        0.0000010065191,
        9.751601e-7,
        0.0000010970149,
        0.0000011379323,
        0.0000011820006,
        0.0000010533684,
        0.0000010570242,
        0.0000010115981,
        0.0000011893063,
        0.0000011390571,
        0.000001238512,
        0.0000012101634,
        0.0000010805487,
        0.000001034573,
        0.0000011200635,
        0.0000010481662,
        0.0000011330675,
        0.0000010930722,
        0.0000011576719,
        0.000001173451,
        0.0000011676073,
        0.0000010684889,
        0.000001018068,
        0.000001002258,
        0.000001216257,
        0.000001169203,
        0.000001192508,
        0.0000010805247,
        0.0000010935543,
        0.0000011310566,
        0.0000010409464,
        0.0000010627537,
        0.0000010942218,
        0.0000011268298,
        0.0000010535083,
        0.0000010989882,
        0.0000012339218,
        0.0000012085701,
        0.0000011305023,
        0.0000010381831,
        0.0000011529745,
        0.0000010940216,
        0.0000012659789,
        0.000001226225,
        0.0000012045125,
        0.0000012091554,
        0.00000105794,
        0.0000010053631,
        0.0000011515561,
        0.0000010540341,
        0.0000011007403,
        0.0000010133734,
        0.0000011832408,
        0.0000011094628,
        0.000001019319,
        9.876659e-7,
        0.0000011800221,
        0.0000010509898,
        0.0000011318878,
        0.0000011059849,
        0.0000011191867,
        0.000001122613,
        0.0000011513974,
        0.0000011491629,
        0.0000012173994,
        0.0000011377837,
        0.0000010061742,
        9.860105e-7,
        0.0000011489628,
        0.0000011323069,
        0.0000010751728,
        0.0000010508602,
        0.0000012297497,
        0.0000011574416,
        0.0000011254119,
        0.0000011207726,
        0.0000011119823,
        0.000001062308,
        0.000001231146,
        0.00000118952,
        0.0000012323893,
        0.0000011941443,
        0.0000011972152,
        0.0000010837871,
        0.0000011915361,
        0.0000011343657,
        0.0000012465348,
        0.0000012222425,
        0.0000010761363,
        9.988715e-7,
        0.0000011431684,
        0.0000011326274,
        0.0000010964461,
        0.0000011164394,
        0.0000011471684,
        0.00000105597,
        0.0000010653606,
        0.0000010582949,
        0.0000012205362,
        0.0000011951881,
        0.0000010568535,
        9.962323e-7,
        0.0000010100556,
        9.943927e-7,
        0.0000010783976,
        0.0000010015706,
        0.000001058335,
        0.0000010729386,
        0.0000010416616,
        0.0000010654003,
        0.0000010442233,
        9.82875e-7,
        0.0000011033381,
        0.0000010535895,
        0.000001113695,
        0.0000011296206,
        0.0000011383056,
        0.0000011436902,
        0.0000011614762,
        0.0000010960575,
        0.0000011985808,
        0.0000011845127,
        0.0000012011651,
        0.0000011218824,
        0.0000010624983,
        0.0000011021655,
        0.0000010561554,
        9.884794e-7,
        0.0000011408636,
        0.0000011021424,
        0.000001197865,
        0.0000012006574,
        0.0000011829735,
        0.0000011875113,
        0.0000010844419,
        0.0000010284505,
        0.0000011829719,
        0.000001074099,
        0.0000011861645,
        0.0000010826573,
        0.0000010060842,
        0.0000010047715,
        0.0000011935125,
        0.0000011916495,
        0.0000011208034,
        0.0000011461335,
        0.0000011340658,
        0.0000010285704,
        0.0000011792347,
        0.0000011880247,
        0.0000011719092,
        0.0000011341084,
        0.0000010671827,
        0.0000010300012,
        0.0000011423692,
        0.0000010961534,
        0.0000011035968,
        0.0000010685433,
        0.0000010909631,
        0.0000011197243,
        0.0000010601467,
        0.0000010462261,
        0.0000010329561,
        9.778402e-7,
        0.0000011752389,
        0.0000011376367,
        0.000001105758,
        0.0000010791316,
        0.0000010304708,
        9.843579e-7,
        0.0000011278928,
        0.0000010377473,
        0.0000011919798,
        0.0000010816312,
        0.000001105667,
        0.0000010244223,
        0.0000011860994,
        0.0000010953622,
        0.0000012316991,
        0.0000011675393,
        0.021835856,
        0.00012348976,
        0.0000011422871,
        0.0000011737411,
        0.0000010684763,
        0.0000010292226,
        0.0000011059286,
        0.0000010466226,
        0.0000010912719,
        0.0000010883886,
        0.0000011701942,
        0.0000011844097,
        0.0000011278563,
        0.0000011389385,
        0.0000012024271,
        0.0000011282589,
        0.00012735483,
        0.022975411,
        0.0000011576788,
        0.0000010783018,
        0.0000012434771,
        0.0000012195042,
        0.0000010549132,
        0.0000010301454,
        0.00000101096,
        9.786671e-7,
        0.0000010615685,
        0.0000010125523,
        0.0000010810867,
        0.0000011256033,
        0.0000011393959,
        0.0000010998732,
        0.0000011081361,
        0.0000010675694,
        0.024592262,
        0.022226041,
        0.0000010487377,
        0.0000010770659,
        0.0000010984174,
        0.000001144188,
        0.0000010552321,
        0.000001005864,
        0.0000012381591,
        0.0000012203336,
        0.00000114193,
        0.0000011375173,
        0.0000010100717,
        9.706807e-7,
        0.0000011204531,
        0.0000010452782,
        0.0000012064353,
        0.0000011172166,
        0.0000011616778,
        0.0000010863217,
        0.0000010851172,
        0.0000010394466,
        0.0000010912729,
        0.0000010397482,
        0.0000010112137,
        0.0000010009916,
        0.0000011182481,
        0.0000011461731,
        0.0000012038763,
        0.0000011514434,
        0.0000012073057,
        0.0000011143239,
        0.0000010578185,
        0.0000010518306,
        0.000001021553,
        9.796614e-7,
        0.0000010891539,
        0.0000011124678,
        0.0000010673654,
        0.0000010291925,
        0.0000010667884,
        9.890907e-7,
        0.00000116261,
        0.0000011808706,
        0.0000010831096,
        9.991256e-7,
        0.0000010820735,
        0.0000010636471,
        0.0000010960199,
        0.0000011136963,
        0.0000011386785,
        0.0000010262305,
        0.0000011846997,
        0.0000010986411,
        0.0000010427577,
        9.946854e-7,
        0.0000011851589,
        0.0000011204445,
        0.0000010409138,
        9.770447e-7,
        0.0000010611114,
        0.000001101409,
        0.0000012356676,
        0.0000011859067,
        0.0000010190001,
        9.834831e-7,
        0.0000011886855,
        0.0000011027272,
        0.0000011562796,
        0.000001181319,
        0.0000012157093,
        0.0000011887837,
        0.0000011668229,
        0.0000010437046,
        0.0000011396124,
        0.0000010266457,
        0.0000010391902,
        9.83737e-7,
        0.0000011288043,
        0.0000010580899,
        0.0000011634462,
        0.0000010474743,
        0.0000010719401,
        0.0000011054592,
        9.9244e-7,
        9.73193e-7,
        0.0000011914633,
        0.0000011666884,
        0.0000010577447,
        9.99022e-7,
        0.0000011108672,
        0.0000010650936,
        0.0000010230175,
        0.0000010029213,
        0.0000010587801,
        9.962918e-7,
        0.0000010582094,
        0.0000010486798,
        0.0000010416022,
        0.0000010105075,
        0.0000010460801,
        0.0000010565773,
        9.983064e-7,
        9.709585e-7,
        0.0000010855197,
        0.000001139579,
        0.0000010795754,
        0.0000010128347,
        0.0000012246948,
        0.0000011614949,
        0.0000010147123,
        9.898135e-7,
        0.0000011734737,
        0.0000011023319,
        0.0000011489811,
        0.0000011508089,
        0.0000012689388,
        0.0000012200264,
        0.0000011833708,
        0.0000010789527,
        0.0000010979869,
        0.0000010983573,
        0.0000012138031,
        0.0000011766011,
        0.0000010461492,
        0.0000010142489,
        0.0000011744219,
        0.000001089726,
        0.0000011369722,
        0.0000010685028,
        0.0000010804889,
        0.000001023559,
        0.0000012142478,
        0.0000011774426,
        0.0000010583746,
        9.868908e-7,
        0.0000011215805,
        0.0000010891813,
        0.0000011788001,
        0.000001128091,
        0.0000011530178,
        0.0000011559353,
        0.0000011180314,
        0.000001106809,
        0.0000010589533,
        0.0000010193618,
        0.0000011522425,
        0.0000011086404,
        0.0000010860944,
        0.0000010991322,
        0.0000010431054,
        9.840593e-7,
        0.0000010185928,
        9.703374e-7,
        0.0000011688549,
        0.0000011858089,
        0.0000012301051,
        0.0000011739171,
        0.0000011939392,
        0.0000011384867,
        0.0000010320381,
        0.0000010539221,
        0.0000010926465,
        0.0000010991218,
        0.0000011460736,
        0.0000011647936,
        0.0000011278427,
        0.0000010973995,
        0.0000010646992,
        9.929029e-7,
        0.0000010277392,
        9.719648e-7,
        0.0000010940428,
        0.0000010952039,
        0.0000011524776,
        0.0000011817879,
        0.0000010364615,
        0.0000010526196,
        0.0000011117859,
        0.0000011465245,
        0.0000010507973,
        0.0000010921286,
        0.0000012164728,
        0.0000011201719,
        0.0000010993083,
        0.000001146278,
        0.0000010918375,
        0.0000011171425,
        0.0000011368247,
        0.0000010726801,
        0.0000011856504,
        0.0000011908544,
        0.000001111142,
        0.0000010402514,
        0.0000011329416,
        0.0000010229071,
        0.0000010824543,
        0.0000010211974,
        0.000001120023,
        0.0000010489235,
        0.0000011247379,
        0.0000011128533,
        0.0000010902893,
        0.0000010116573,
        0.0000011245104,
        0.000001112054,
        0.0000010785506,
        0.0000010520065,
        0.0000011632487,
        0.0000010931923,
        0.0000010504394,
        0.0000010149391,
        0.0000011720119,
        0.0000011002084,
        0.0000011845196,
        0.0000010628953,
        0.000001092229,
        0.0000010454988,
        0.000001108279,
        0.0000011008461,
        0.0000010599939,
        0.0000010262203,
        0.000001190642,
        0.0000010710442,
        0.0000011519768,
        0.0000011682059,
        0.0000011811803,
        0.000001171497,
        0.0000011734982,
        0.0000011711238,
        0.0000010998699,
        0.0000010365341,
        0.000001233547,
        0.0000011761549,
        0.0000011124096,
        0.0000010123141,
        0.0000011901651,
        0.0000011795355,
        0.0000011475579,
        0.0000010473732,
        0.0000011312461,
        0.0000011186407,
        0.0000012037796,
        0.0000011507389,
        0.0000011584964,
        0.0000010452683,
        0.0000010450902,
        0.0000010242969,
        0.0000011233021,
        0.0000011432312,
        0.0000011403853,
        0.0000010707072,
        0.0000010202843,
        9.67895e-7,
        0.0000010752858,
        0.0000011153196,
        0.0000011800504,
        0.0000010764634,
        0.0000012498376,
        0.0000012216984,
        0.0000012285354,
        0.0000011431682,
        0.0000011631137,
        0.0000011184243,
        0.0000011023525,
        0.0000011063025,
        0.0000010124234,
        9.716025e-7,
        0.0000011044954,
        0.0000011132435,
        0.0000010892724,
        0.0000011152591,
        0.0000011994957,
        0.0000011281949,
        0.0000010126829,
        9.718091e-7,
        0.0000010524129,
        0.0000010436684,
        0.0000010059895,
        9.942981e-7,
        0.0000012227308,
        0.0000011931908,
        0.0000012042711,
        0.0000011092822,
        0.0000011387069,
        0.0000011359272,
        0.0000012310526,
        0.0000011707717,
        9.932972e-7,
        9.666194e-7,
        0.0000010569943,
        0.0000010193485,
        0.0000011077022,
        0.0000011125026,
        0.0000011469176,
        0.0000011378454,
        0.0000012408731,
        0.0000012117671,
        0.0000011187952,
        0.0000011535559,
        0.0000011158824,
        0.00000115051,
        0.0000012094724,
        0.0000011579666,
        0.0000011635577,
        0.0000010499025,
        0.0000011436059,
        0.0000010948974,
        0.0000012100352,
        0.0000011921065,
        0.0000010704312,
        0.0000011241791,
        0.000001082329,
        9.967785e-7,
        0.00000106994,
        0.0000010023509
      ]
    }
  },
  "loss_history": [
    5.0963583,
    4.8377867
  ],
  "checkpoint_digest": "sha256:12f2f34a319b687f7dfe99b3e2fafe70b7dc33154293ebd9f06bccbfbdb4c64f"
}
